subclassof 0.07171478 -0.04318767 0.1609709 0.10667456 -0.29887402 0.18839288 0.024766207 0.28048083 -0.362764 -0.054498572 -0.16055124 0.23124014 -0.027735556 0.3139214 -0.046777386 -0.14612514 0.09421374 -0.0008038448 0.040958267 0.1147902 0.04404035 0.064039566 0.1491768 0.23577085 0.17268455 -0.17695847 -0.08724014 -0.057308946 -0.2095802 -0.019051298 -0.10157482 -0.04455927 0.066593826 0.008681742 -0.198212 -0.09703191 0.13408814 -0.36267188 -0.22258587 0.1725797 -0.08016486 0.082051724 0.26717848 -0.22284167 0.04451408 0.14963783 0.22375758 -0.026262132 0.10057997 0.018235661 -0.08468631 -0.1745337 -0.07309944 -0.07433643 0.31969252 0.19491546 -0.30687895 0.20993477 0.04698821 0.39628005 0.1862105 -0.057209846 -0.26903155 -0.022333566 0.19045632 0.18468514 0.08656829 -0.38415706 -0.15964538 -0.33407474 -0.010197565 -0.18727162 -0.10781729 0.082185656 -0.060688384 0.020802122 -0.10192845 -0.15018886 -0.12188559 0.06108639 0.16984913 0.20223594 -0.13828117 0.2198183 -0.1117692 -0.056404456 -0.043079447 -0.024773158 0.0735699 0.2558668 -0.19536139 0.1572212 -0.063074365 -0.12220697 0.024756763 -0.014798432 -0.20673105 -0.12208576 -0.07304937 -0.38549605
http://www.w3.org/2000/01/rdf-schema#subClassOf 0.08736846 -0.058306944 0.16576257 0.07525893 -0.27253446 0.19844824 0.052552234 0.27042276 -0.33540723 -0.053466223 -0.17349106 0.21365084 -0.020886933 0.29140785 -0.064922325 -0.14427555 0.08757161 -0.015101937 0.021109974 0.107508525 0.058470763 0.056809686 0.15159191 0.22398674 0.17694782 -0.15142038 -0.08382423 -0.05368358 -0.19626509 -0.020243267 -0.089060634 -0.017941589 0.07720153 0.026961304 -0.19122325 -0.097324744 0.1182587 -0.34361246 -0.23712085 0.13772254 -0.04926759 0.08138654 0.22791311 -0.22069521 0.07576394 0.13751894 0.20335479 -0.051696118 0.11195536 -0.009869852 -0.071442544 -0.1659394 -0.05469718 -0.103503846 0.29749358 0.19259924 -0.3150492 0.20298806 0.04577389 0.38576555 0.17168109 -0.05822726 -0.25530592 -0.030615613 0.17209978 0.18641642 0.053411935 -0.38589227 -0.16179211 -0.32091022 -0.04084161 -0.18584283 -0.099412635 0.0966308 -0.06146817 0.029743271 -0.06928503 -0.15213676 -0.10391386 0.054759163 0.14153644 0.16892943 -0.13877223 0.20380856 -0.118681766 -0.05100351 -0.035219245 -0.039563466 0.06401302 0.240073 -0.20486093 0.15786847 -0.06869117 -0.12809455 0.03537141 -0.038325425 -0.20916522 -0.14209087 -0.07081517 -0.3540146
http://www.semanticweb.org/owl2vec#superClassOf 0.079897285 -0.04628154 0.15754367 0.09141778 -0.2781243 0.18013185 0.051368684 0.2732751 -0.33655256 -0.04842052 -0.1758325 0.20651995 -0.014857362 0.28830576 -0.060442373 -0.14908423 0.09238624 -0.010708747 0.025022943 0.123461984 0.04873591 0.055951748 0.15692641 0.21401514 0.17072737 -0.15608805 -0.071576655 -0.05252335 -0.19533356 -0.03221367 -0.092611365 -0.012912173 0.0766217 0.028005345 -0.19932885 -0.08739749 0.11625559 -0.33483905 -0.23133533 0.13995185 -0.07420472 0.08721955 0.22435766 -0.21382214 0.06502464 0.12648343 0.21697783 -0.050027713 0.11066136 -0.008142105 -0.08585378 -0.1614794 -0.063857555 -0.09775336 0.30660853 0.18052761 -0.30154738 0.1914476 0.041008856 0.37828347 0.17056765 -0.06773402 -0.2617287 -0.021809055 0.18442741 0.18382417 0.05843444 -0.37891167 -0.15494062 -0.31011853 -0.033514235 -0.18505886 -0.11641795 0.10562822 -0.06750305 0.031934395 -0.07526475 -0.13674036 -0.12435891 0.04048293 0.12628293 0.17607285 -0.13089761 0.20050834 -0.11559575 -0.041266177 -0.028759314 -0.0397322 0.06468547 0.2440303 -0.20644279 0.1516511 -0.062687114 -0.12774618 0.02623729 -0.027982308 -0.19725938 -0.14000173 -0.07144364 -0.3733475
of 0.07101685 -0.049691856 0.15351677 0.11444048 -0.29903236 0.17096904 0.028179117 0.28298494 -0.37526116 -0.062407423 -0.1560325 0.22981499 -0.047724362 0.30237713 -0.067153916 -0.1488549 0.10490366 0.013607183 0.03577171 0.12649235 0.041698508 0.053742643 0.17042153 0.24073303 0.18256176 -0.18011782 -0.09728573 -0.08475626 -0.23808229 -0.011429261 -0.100819066 -0.04469885 0.067596056 0.02153698 -0.22507745 -0.08186124 0.13086458 -0.38345936 -0.22549057 0.18211347 -0.06894939 0.076564126 0.26770556 -0.22004889 0.07891041 0.13108961 0.2422066 -0.023828931 0.08775504 0.011211418 -0.09233815 -0.17786877 -0.0722772 -0.079336874 0.34303784 0.22165583 -0.33945072 0.23899482 0.03349075 0.4151578 0.18893185 -0.047828674 -0.28427246 -0.024662837 0.18819837 0.19989403 0.0714479 -0.39825413 -0.15903242 -0.3406708 -0.022390818 -0.17584471 -0.109324686 0.08496275 -0.059306715 0.008347918 -0.084358096 -0.13623732 -0.12585184 0.046189837 0.14587614 0.2154294 -0.113293745 0.21093747 -0.11638904 -0.06678043 -0.03304487 -0.0032299524 0.08564566 0.25197768 -0.20108972 0.14720102 -0.084469855 -0.115059204 0.020582287 0.001702992 -0.23760429 -0.1385767 -0.084975116 -0.39626944
http://www.w3.org/2000/01/rdf-schema#comment 0.09817785 -0.04913739 0.15641943 0.10074932 -0.28400892 0.18387887 0.041894585 0.2629879 -0.32542798 -0.06278905 -0.18104312 0.20045422 -0.028931322 0.29103875 -0.07850984 -0.1454257 0.11471151 -0.0008671548 0.02414938 0.1139306 0.05919344 0.06236123 0.16074044 0.22205512 0.1657212 -0.1581995 -0.07641003 -0.043845747 -0.21336566 -0.024231335 -0.105434164 -0.016224518 0.0954194 0.010184071 -0.2068725 -0.095450915 0.119455576 -0.33173618 -0.23438609 0.14323016 -0.062114317 0.08293423 0.23681742 -0.22220789 0.060413018 0.14588204 0.21219756 -0.041588847 0.1084177 0.0030454851 -0.07703547 -0.1573496 -0.057646528 -0.09768753 0.3134423 0.19395421 -0.32074496 0.20422947 0.0539425 0.3743253 0.17459533 -0.06870071 -0.25793722 -0.031960137 0.17206366 0.2007951 0.057955913 -0.37593845 -0.16660263 -0.3105291 -0.020585595 -0.17223758 -0.11154308 0.098899074 -0.06875087 0.037618052 -0.07490875 -0.15581237 -0.117908046 0.038176443 0.13157012 0.1863509 -0.13910086 0.2147257 -0.1142921 -0.05435027 -0.02259464 -0.039880358 0.06778018 0.24661143 -0.2088779 0.16789347 -0.06858838 -0.1239084 0.016513577 -0.025384828 -0.21887983 -0.14570415 -0.060333937 -0.37080553
class 0.066563144 -0.04252721 0.16794637 0.11123707 -0.2942394 0.18531197 0.037886195 0.26948345 -0.36322373 -0.06481089 -0.14432822 0.22799504 -0.023418047 0.30343908 -0.040034298 -0.1672618 0.10502074 -0.024084441 0.031764686 0.13017759 0.05140128 0.049384832 0.14977667 0.23649128 0.17033787 -0.17893511 -0.073340654 -0.08478459 -0.20991506 0.0034575185 -0.09840015 -0.049910516 0.060451247 0.01186013 -0.20525947 -0.10272921 0.11329097 -0.38248804 -0.22443126 0.13983217 -0.057076998 0.06044062 0.24637623 -0.23395628 0.07326071 0.11249715 0.20832285 -0.03303808 0.09684402 0.017914036 -0.06837935 -0.17163683 -0.055291574 -0.08624904 0.3284232 0.197984 -0.31174052 0.23892774 0.05726285 0.41543397 0.1704782 -0.07222868 -0.26246217 -0.03688293 0.20313592 0.17404073 0.05250901 -0.40207592 -0.13201873 -0.33785135 -0.00847662 -0.18078306 -0.114640005 0.0696327 -0.0855375 0.018302899 -0.07261022 -0.14259344 -0.10778329 0.038861025 0.1357419 0.20874165 -0.14885569 0.19598697 -0.1158526 -0.03892238 -0.027999226 -0.035896443 0.09646298 0.26961094 -0.18508245 0.15720035 -0.08992585 -0.10810578 0.014825143 -0.0087001175 -0.2174059 -0.11631393 -0.07132153 -0.37866548
super 0.07980708 -0.042772025 0.16100788 0.09202447 -0.2776072 0.18393585 0.028077453 0.27179134 -0.34293938 -0.054746956 -0.14884213 0.21790223 -0.026753264 0.2958805 -0.056114856 -0.1474451 0.090114556 -0.012509327 0.01883619 0.112611555 0.05292714 0.059861515 0.14465874 0.22363481 0.17308077 -0.18014053 -0.08583152 -0.08059472 -0.21891281 -0.011179237 -0.0919867 -0.043779343 0.075711384 0.009521621 -0.21822508 -0.08852623 0.1110951 -0.36917105 -0.21740761 0.17009939 -0.060895726 0.083804324 0.25971472 -0.22327152 0.07527947 0.118061155 0.21785696 -0.027493652 0.10599401 0.017342174 -0.08165552 -0.15492523 -0.073535554 -0.075250305 0.317681 0.1990663 -0.30726743 0.22650896 0.038451906 0.3954856 0.15857255 -0.04736278 -0.27696732 -0.040597565 0.18905765 0.18925785 0.061869454 -0.37874427 -0.1268021 -0.34311008 -0.01437112 -0.16841336 -0.096818015 0.07559459 -0.069408424 0.021291861 -0.08286451 -0.15481472 -0.12076429 0.06710867 0.1515594 0.18273039 -0.11878971 0.21891549 -0.12119347 -0.046023402 -0.028580898 -0.022317385 0.07398365 0.26274917 -0.18776256 0.15692577 -0.068690345 -0.10980826 0.01136221 -0.021461751 -0.20860645 -0.12545234 -0.08488993 -0.39141965
SubClassOf 0.089454494 -0.05156733 0.15113492 0.087517716 -0.30425256 0.17702107 0.031144988 0.27661774 -0.34158415 -0.047636863 -0.17429097 0.21489383 -0.019777507 0.31137654 -0.05586057 -0.14632057 0.10267222 0.020632707 0.019879399 0.11819712 0.034270916 0.07658983 0.16588764 0.2095045 0.17296739 -0.16873471 -0.08552144 -0.05307326 -0.208605 -0.02572857 -0.0927883 -0.026184037 0.09776947 0.009796169 -0.2136584 -0.08494198 0.12482918 -0.35406303 -0.2130313 0.16384898 -0.077345744 0.09112821 0.25910875 -0.22362366 0.06281499 0.14506637 0.22289795 -0.05973339 0.09612198 0.0018273215 -0.0840265 -0.17556652 -0.06710143 -0.07648354 0.32180235 0.19999583 -0.30919576 0.198077 0.03606124 0.39253008 0.16910242 -0.06436595 -0.25415713 -0.027178086 0.18235181 0.2067366 0.07627029 -0.3785966 -0.16896509 -0.32426563 -0.018810956 -0.16571437 -0.12189675 0.110370934 -0.063054495 0.042464282 -0.09532641 -0.1517848 -0.12989798 0.05523102 0.15215339 0.19210412 -0.13369054 0.2013296 -0.1079112 -0.052176535 -0.027830798 -0.028330471 0.058218066 0.23547979 -0.22246368 0.15899506 -0.06979233 -0.11744047 0.014154248 -0.02102339 -0.20315166 -0.14328554 -0.07177765 -0.3762522
some 0.11016999 -0.056739066 0.16109091 0.12846226 -0.33554885 0.1417556 0.032741535 0.28409243 -0.39719772 0.011647558 -0.21636377 0.26167762 -0.033374585 0.33205655 -0.027661301 -0.15264076 0.07243499 0.0753082 0.022468809 0.12146213 -0.0280342 0.11671744 0.16173142 0.19920103 0.15322514 -0.21457177 -0.10962058 -0.0048603555 -0.22059985 -0.05099405 -0.10640794 -0.044956446 0.072691195 -0.062481657 -0.21253888 -0.06955889 0.14646013 -0.41615376 -0.18560684 0.238539 -0.13412157 0.08292673 0.34756526 -0.218196 0.033903874 0.16892786 0.25183734 -0.06178533 0.089041576 0.031438388 -0.10769493 -0.16298476 -0.06418878 -0.0591739 0.38116887 0.22661158 -0.33981055 0.19970556 0.033640563 0.4008341 0.24737056 -0.06828511 -0.28467786 -0.042181283 0.21630342 0.25464734 0.121825814 -0.36678723 -0.15690279 -0.36130616 -0.012182564 -0.18286876 -0.12888913 0.10055813 -0.068960704 0.017340772 -0.1615933 -0.13100797 -0.14848848 0.05245135 0.18464442 0.23947895 -0.08690564 0.22221805 -0.077579774 -0.07880977 -0.03831645 -0.002638841 0.0049703578 0.2279308 -0.21788125 0.16053379 -0.06935937 -0.103916526 0.004021251 0.034312196 -0.19151685 -0.14696531 -0.09813885 -0.40687358
comment 0.07328417 -0.06720512 0.15051705 0.106564105 -0.29196182 0.18781617 0.037309404 0.2672238 -0.34637108 -0.063093476 -0.16570051 0.20528696 -0.028702486 0.31003174 -0.06429331 -0.15127891 0.10810904 0.011466579 0.025254544 0.122464195 0.059858862 0.060480796 0.15700786 0.21732497 0.16313265 -0.1473356 -0.084051 -0.060942788 -0.20885473 -0.02399619 -0.09894242 -0.02667343 0.08014244 0.019036874 -0.20815165 -0.08001775 0.10997821 -0.35983038 -0.22094314 0.15198867 -0.071306475 0.08216658 0.2564206 -0.22366808 0.05196845 0.13494703 0.22624621 -0.05495467 0.11264108 0.0047756284 -0.09539206 -0.17487568 -0.054600738 -0.08094289 0.3202417 0.20346074 -0.31340438 0.21174514 0.056063686 0.38929492 0.1618266 -0.0599649 -0.26179656 -0.037572313 0.19500712 0.19184855 0.07249593 -0.38630548 -0.14781356 -0.3367499 -0.027125597 -0.18132594 -0.1103932 0.09543075 -0.07675095 0.02403451 -0.09039765 -0.14409387 -0.12431698 0.04897884 0.1435225 0.19037493 -0.13027373 0.21259789 -0.114166535 -0.050401777 -0.015360116 -0.04006123 0.06127904 0.25638577 -0.2182814 0.16063605 -0.08142879 -0.1261827 0.02220423 -0.018366352 -0.21485174 -0.14278997 -0.05989482 -0.37172315
plant 0.10272568 -0.05589946 0.16697711 0.12465441 -0.33163387 0.17516375 0.043607872 0.29667062 -0.38041753 -0.031823654 -0.18929851 0.23780613 -0.044415124 0.31453001 -0.05667467 -0.15079805 0.09842063 0.038849365 0.017172147 0.109765284 0.017812816 0.07062599 0.18403278 0.23266155 0.17416333 -0.1942591 -0.112150684 -0.050430514 -0.22828506 -0.033367876 -0.11080187 -0.050185855 0.07677973 -0.010862163 -0.2355627 -0.08065312 0.13615711 -0.40119103 -0.20550352 0.1965796 -0.093882285 0.099408716 0.2803341 -0.21937016 0.06878821 0.15660037 0.23198432 -0.049275845 0.09437089 0.008755023 -0.107758515 -0.17778087 -0.05811189 -0.061170522 0.34216 0.23050734 -0.34005588 0.22732876 0.039607022 0.40618506 0.20720306 -0.061970428 -0.29157782 -0.037230313 0.20956011 0.21325643 0.09645445 -0.3906158 -0.16399196 -0.3688739 -0.016359199 -0.1977744 -0.11318568 0.10163726 -0.07234715 0.020920722 -0.103645906 -0.15192871 -0.13278438 0.051765814 0.18536825 0.2273287 -0.09720941 0.22931884 -0.110566296 -0.06367058 -0.0036910684 -0.0028899475 0.053872705 0.24336506 -0.21593654 0.16475707 -0.06778297 -0.12012214 0.006878775 -0.011230613 -0.20805673 -0.13925101 -0.09277922 -0.3944301
animal 0.09316948 -0.049105644 0.16983964 0.10232798 -0.31432754 0.16409315 0.027477283 0.2953387 -0.35313028 -0.045571253 -0.179117 0.2189921 -0.039047353 0.31095347 -0.058796592 -0.1623586 0.112522766 0.02913068 0.030755032 0.117659524 0.023053167 0.06731973 0.16245203 0.21247412 0.17169325 -0.16787826 -0.08667368 -0.046112005 -0.2193811 -0.02253176 -0.10628534 -0.031718515 0.08864966 0.0026408308 -0.21279697 -0.09352 0.12510704 -0.37763327 -0.19910358 0.17418039 -0.08293481 0.075795546 0.29185876 -0.20992973 0.051619902 0.1541874 0.23275034 -0.040301744 0.098416194 0.026236894 -0.101314306 -0.17031261 -0.06949678 -0.059823677 0.3372947 0.2111399 -0.33603472 0.22239533 0.041154485 0.39839143 0.18857312 -0.06589193 -0.2706916 -0.040893085 0.2010759 0.19561061 0.068608366 -0.3904179 -0.13605832 -0.33438644 -0.016596261 -0.17528808 -0.116051614 0.09290769 -0.08556096 0.021272296 -0.11418454 -0.15230252 -0.14142695 0.03332097 0.16570142 0.21682423 -0.1153786 0.2212022 -0.10797436 -0.06646041 -0.03180793 -0.024025679 0.05312153 0.24318296 -0.21398686 0.1514658 -0.08515261 -0.11586013 0.012971233 -0.00015042236 -0.20518497 -0.12336279 -0.06871026 -0.3889071
http://www.meteck.org/teaching/OEbook/ontologies/AfricanWildlifeOntology4.owl#AnimalCollective 0.094562925 -0.056492984 0.1661747 0.099601164 -0.27369484 0.18298616 0.039911117 0.26672935 -0.33297879 -0.038773496 -0.16628928 0.20543395 -0.024290781 0.29525962 -0.07401076 -0.15667921 0.104183145 0.015203795 0.035588175 0.10931521 0.053811938 0.057867996 0.16504711 0.2152978 0.15871748 -0.1372192 -0.09176058 -0.03982317 -0.20890546 -0.032162882 -0.08970822 -0.014848992 0.096136004 0.023248818 -0.19641756 -0.09064621 0.098639704 -0.34200704 -0.21645598 0.1279055 -0.07220606 0.08760104 0.24732578 -0.21412751 0.06903944 0.1502204 0.21892844 -0.050379578 0.093467765 0.021155877 -0.09261909 -0.1620384 -0.061468966 -0.07439977 0.30919114 0.18182437 -0.3126229 0.20016262 0.046420965 0.38011473 0.16034387 -0.048915256 -0.2591792 -0.029277286 0.17134532 0.17518461 0.052072678 -0.37139967 -0.14207639 -0.3235644 -0.029064748 -0.17951483 -0.097649224 0.0986596 -0.063733965 0.035718404 -0.07297942 -0.13150476 -0.12818111 0.05121583 0.13681933 0.18586625 -0.1256091 0.20833999 -0.11193078 -0.06537253 -0.0055921306 -0.04207144 0.05124774 0.24329658 -0.21837433 0.1617001 -0.07522574 -0.12945844 0.032345388 -0.0191472 -0.20929986 -0.13436851 -0.06562377 -0.37052354
tree 0.08630538 -0.061288774 0.15467636 0.11454458 -0.2859766 0.18577327 0.034936592 0.26491255 -0.34408364 -0.043247137 -0.17071748 0.20479974 -0.018090028 0.3045573 -0.055235397 -0.15191175 0.11131783 0.009903551 0.02988302 0.1139784 0.046128932 0.050384495 0.15763432 0.23367587 0.16965951 -0.16350797 -0.080656216 -0.06996546 -0.19854319 -0.031349298 -0.100764744 -0.022482146 0.07848154 0.02598512 -0.19724706 -0.07628627 0.11757683 -0.34319904 -0.20842928 0.14553149 -0.07342007 0.07123117 0.23256746 -0.21386729 0.046220936 0.15117218 0.2200562 -0.04161534 0.106731065 0.013881038 -0.10051634 -0.17210905 -0.054064892 -0.06534608 0.30314204 0.19969153 -0.3057134 0.18994841 0.036110446 0.3779015 0.15790677 -0.06960189 -0.26626667 -0.04114482 0.18625733 0.16856608 0.06694991 -0.3772342 -0.13678023 -0.31895792 -0.014502821 -0.1808509 -0.10283941 0.09309695 -0.059156887 0.0430511 -0.06789767 -0.13406529 -0.11951489 0.052677494 0.15280196 0.177544 -0.13381413 0.21610974 -0.11948276 -0.06246028 -0.01296196 -0.04070346 0.074574105 0.25678778 -0.22038482 0.15601364 -0.057185 -0.12021991 0.014193566 -0.019504145 -0.2117586 -0.1343158 -0.08148658 -0.36881155
http://www.meteck.org/teaching/OEbook/ontologies/AfricanWildlifeOntology1.owl#Tree 0.092170335 -0.063152276 0.14859766 0.09005569 -0.28339678 0.16237073 0.038267847 0.27257434 -0.34435293 -0.051713478 -0.18171978 0.20132597 -0.027303806 0.29462028 -0.06013606 -0.13777925 0.10250626 0.00929587 0.035993535 0.10894384 0.056141254 0.068612024 0.15519609 0.21846552 0.15653971 -0.14225022 -0.08047622 -0.042816777 -0.20568758 -0.019368589 -0.09677822 -0.030372534 0.07507967 0.016298698 -0.2022212 -0.09665482 0.10988724 -0.3294315 -0.21372898 0.15215409 -0.07056258 0.08234537 0.24880563 -0.2120385 0.04925624 0.12887685 0.22074038 -0.03921484 0.10422974 -0.00017848932 -0.09324987 -0.17147037 -0.06262904 -0.08604824 0.30855072 0.18044053 -0.29306936 0.19537143 0.036570847 0.3734819 0.17299908 -0.06518595 -0.2687322 -0.0446112 0.18472138 0.17502822 0.06846963 -0.3691394 -0.1471783 -0.32435316 -0.014400029 -0.16975243 -0.10702436 0.08760594 -0.055796985 0.027085338 -0.07774328 -0.13753599 -0.123610795 0.040816892 0.124861315 0.16917406 -0.12735613 0.19536285 -0.10767393 -0.04563094 -0.023709042 -0.04802204 0.04936256 0.24118501 -0.21758154 0.15374069 -0.08148564 -0.12592253 0.01916748 -0.019893099 -0.20362075 -0.12901095 -0.07190609 -0.35124913
carnivore 0.08847182 -0.073118515 0.14887945 0.09375307 -0.30339298 0.17890663 0.05097793 0.28788352 -0.35165435 -0.04489108 -0.18220715 0.2146808 -0.021180546 0.30595887 -0.068026125 -0.14965758 0.11029278 -0.00036101433 0.029038787 0.12250761 0.06300604 0.078857735 0.15627487 0.2213259 0.18078354 -0.18612055 -0.09936446 -0.07437668 -0.2348518 -0.009990743 -0.12486542 -0.05488954 0.10431399 0.0025567946 -0.20868185 -0.11417082 0.11205627 -0.3824266 -0.20768705 0.16580199 -0.09086207 0.07048434 0.24767204 -0.22979273 0.051040433 0.14943108 0.24025598 -0.03378872 0.10096565 -0.006741124 -0.09865032 -0.16525963 -0.061951414 -0.075812995 0.3370024 0.20398581 -0.30961788 0.23068792 0.067514665 0.4256466 0.17392296 -0.069219515 -0.28970504 -0.024799906 0.19159825 0.20635827 0.09463241 -0.4002265 -0.14693066 -0.32957366 -0.028110076 -0.19072188 -0.11101835 0.11130708 -0.08116666 0.026583338 -0.08972472 -0.1405321 -0.14808969 0.05110647 0.14723535 0.19172278 -0.13076359 0.21194468 -0.10795048 -0.06473462 -0.0013235555 -0.047947574 0.07482435 0.25181088 -0.21878274 0.15892725 -0.084312506 -0.1428672 0.031014208 -0.025159141 -0.22068222 -0.13547899 -0.06429258 -0.38601977
collective 0.0797898 -0.04628036 0.16787075 0.0989988 -0.3041108 0.18782292 0.029374264 0.28062844 -0.35181832 -0.058991097 -0.16619737 0.20520848 -0.020881552 0.3092942 -0.07120776 -0.16390504 0.11303672 0.009970586 0.0201182 0.13070983 0.039870597 0.052551325 0.17147242 0.21131591 0.16959457 -0.14871235 -0.086272635 -0.050249353 -0.2166359 -0.0372623 -0.1010482 -0.017511712 0.07552934 0.020084884 -0.21222363 -0.08385368 0.10994711 -0.35605443 -0.22502829 0.1472444 -0.07325595 0.073427245 0.2549911 -0.2224834 0.04962139 0.13676089 0.21849926 -0.043141287 0.11401069 0.023864929 -0.09818581 -0.18329807 -0.068188645 -0.07416108 0.31519443 0.19675785 -0.3109217 0.21856213 0.05525873 0.3879737 0.17442456 -0.060390864 -0.2786688 -0.037446123 0.191147 0.19121681 0.07596776 -0.3772848 -0.15121558 -0.32870108 -0.013847439 -0.17382401 -0.11639457 0.10567855 -0.06642098 0.03883132 -0.09797951 -0.14572209 -0.11584835 0.043457147 0.15336318 0.18306164 -0.1400199 0.21994945 -0.11503193 -0.054583505 -0.024870874 -0.036858775 0.073611364 0.24272044 -0.21205539 0.16744901 -0.07457336 -0.12628949 0.013211456 -0.008850864 -0.21801981 -0.14671956 -0.07339436 -0.36481705
http://www.meteck.org/teaching/OEbook/ontologies/AfricanWildlifeOntology1.owl#Herbivore 0.083441935 -0.06606816 0.16039996 0.08582649 -0.27364108 0.18190517 0.054026358 0.27377743 -0.34398678 -0.05404489 -0.18015239 0.20692283 -0.0140123265 0.29941425 -0.059127033 -0.13947438 0.104717426 0.013431446 0.025147509 0.11277346 0.03440183 0.0677691 0.16011184 0.21769178 0.16141781 -0.14751172 -0.075888984 -0.047299504 -0.20460033 -0.038678363 -0.090345375 -0.011737451 0.088979535 0.02149071 -0.19595654 -0.081840806 0.11087944 -0.3477975 -0.22030106 0.13844962 -0.08254698 0.091734454 0.24496074 -0.22809924 0.052363407 0.15296456 0.22576717 -0.057150774 0.10308748 0.015002499 -0.07701566 -0.1561762 -0.04912772 -0.08506486 0.31659693 0.19084111 -0.31243524 0.20032917 0.045678854 0.37898535 0.16771537 -0.06312176 -0.27269205 -0.035132766 0.18227671 0.20385076 0.06975639 -0.3735473 -0.16783537 -0.32512343 -0.029253945 -0.17510706 -0.109938726 0.09795469 -0.065799445 0.022496203 -0.08796215 -0.1465801 -0.12615919 0.051432043 0.12621428 0.1750989 -0.13263834 0.21598151 -0.102261126 -0.059584904 -0.018690843 -0.043900106 0.058690496 0.2500503 -0.21569435 0.16509518 -0.07918608 -0.12642299 0.023062376 -0.02530476 -0.1967265 -0.15096243 -0.06872617 -0.36501476
http://www.meteck.org/teaching/OEbook/ontologies/AfricanWildlifeOntology1.owl#PlantParts 0.07588642 -0.05798681 0.15323977 0.09124471 -0.2995451 0.16420457 0.0271509 0.27200034 -0.3502877 -0.033230577 -0.18023436 0.21259941 -0.020939393 0.29667526 -0.052090537 -0.15788032 0.09544499 0.006496579 0.019531235 0.10747387 0.042946238 0.07063466 0.15295881 0.22894488 0.17325427 -0.15023623 -0.09939243 -0.036115132 -0.20594975 -0.014784998 -0.10500911 -0.016263373 0.08781019 0.0003990971 -0.21057434 -0.09827803 0.12739222 -0.3535567 -0.22070047 0.15336607 -0.08091905 0.07362974 0.25870654 -0.2084899 0.066032395 0.1472667 0.21432748 -0.051855404 0.09635954 0.0015258047 -0.09920383 -0.17283954 -0.05865861 -0.09321197 0.305275 0.20646529 -0.31780228 0.20467931 0.044913158 0.39220363 0.17865884 -0.06658596 -0.2555511 -0.038589023 0.19308266 0.19114555 0.057618633 -0.36823955 -0.17325866 -0.31257594 -0.036399595 -0.18286158 -0.10716263 0.10784741 -0.070084095 0.02148424 -0.0913366 -0.13359098 -0.11501471 0.034667466 0.13827218 0.18350998 -0.13298018 0.21543074 -0.10749129 -0.06472196 -0.008711442 -0.033168405 0.04942441 0.24558216 -0.22111247 0.1510506 -0.06403383 -0.115622334 0.010679506 -0.010205328 -0.20658602 -0.12901935 -0.064304195 -0.37442634
herbivore 0.10237683 -0.05771579 0.16491583 0.10106055 -0.3159055 0.16439141 0.033158585 0.28230482 -0.38009563 -0.029561237 -0.19979446 0.23347823 -0.04261672 0.33061042 -0.058909234 -0.16201231 0.10110654 0.03417712 0.027789967 0.11765344 0.033470362 0.08309669 0.1751477 0.21630305 0.16410662 -0.18435639 -0.105941564 -0.051965438 -0.23202935 -0.01903862 -0.116722606 -0.036103476 0.093607344 0.0031371398 -0.22680132 -0.094699636 0.12143728 -0.37800753 -0.19713849 0.16693655 -0.11047793 0.077656455 0.29137897 -0.2359855 0.05613733 0.15118049 0.23111199 -0.04481107 0.08548952 0.015589131 -0.09317463 -0.17428446 -0.07086911 -0.0726597 0.36329362 0.20955615 -0.32716578 0.21403581 0.04789722 0.40137786 0.19862029 -0.055265766 -0.29233715 -0.03980348 0.20754884 0.22357102 0.082890116 -0.39335883 -0.15301108 -0.35562003 -0.015713837 -0.17382093 -0.11207406 0.10205435 -0.07646771 0.015606764 -0.099728145 -0.15075217 -0.14740925 0.051023025 0.16253994 0.20492958 -0.12654552 0.23263225 -0.1062899 -0.05682256 -0.008551505 -0.038787656 0.044398345 0.26714572 -0.22066775 0.1617773 -0.08351847 -0.12512957 0.017622761 -0.014361316 -0.2139286 -0.14039637 -0.07817657 -0.40497714
eats 0.13599595 -0.057447698 0.16183116 0.12691896 -0.3480688 0.10619865 0.018264655 0.3018917 -0.40119076 0.019520227 -0.21246567 0.25091803 -0.05865507 0.3582891 -0.024684804 -0.17325571 0.07698633 0.1132731 0.020929439 0.10673598 -0.032531206 0.13122083 0.17870177 0.18868507 0.13033749 -0.21452095 -0.11910477 0.009770409 -0.2413015 -0.038542945 -0.10695651 -0.060581543 0.05286644 -0.06514541 -0.20923766 -0.06311467 0.14767258 -0.4385386 -0.12951232 0.24485852 -0.14899004 0.08592616 0.36645663 -0.18519935 0.041961268 0.20561355 0.27668542 -0.045278806 0.076661244 0.040337272 -0.14236772 -0.17789091 -0.08657133 -0.029984897 0.40824932 0.22480182 -0.33333656 0.21538533 0.018607002 0.39321783 0.25686133 -0.076299906 -0.2987673 -0.053492807 0.22103032 0.25717592 0.13360734 -0.35414764 -0.1552272 -0.35574365 -0.015070114 -0.17096578 -0.13069598 0.104518734 -0.06562676 0.012659953 -0.18114103 -0.13169256 -0.16134855 0.02422317 0.22612222 0.22973958 -0.071986385 0.24548121 -0.08362444 -0.08476037 -0.02277147 0.019388238 0.0013060303 0.21631347 -0.18381412 0.14415927 -0.05790649 -0.12061863 -0.021457372 0.056459602 -0.17689991 -0.12293421 -0.082912676 -0.4284079
http://www.meteck.org/teaching/OEbook/ontologies/AfricanWildlifeOntology1.owl#Plant 0.108745694 -0.053180136 0.15400599 0.09222287 -0.28897518 0.16350168 0.046116006 0.26342225 -0.3534212 -0.045379095 -0.19165139 0.2218932 -0.016247395 0.31493917 -0.05513317 -0.16052651 0.113111705 0.030397262 0.02460402 0.11922101 0.04189921 0.08000428 0.16289417 0.21757205 0.17036751 -0.16754566 -0.09840916 -0.038249087 -0.22158714 -0.03846983 -0.092189744 -0.008973194 0.08734198 -0.0016842103 -0.20783873 -0.08088796 0.1210638 -0.36449364 -0.21046744 0.16018489 -0.08526653 0.096017644 0.27335763 -0.21512516 0.056250278 0.14752041 0.21867226 -0.0461077 0.1065402 0.019281996 -0.10270704 -0.17464077 -0.045855552 -0.08115336 0.33914608 0.20028976 -0.3198753 0.20293432 0.051868204 0.380357 0.19212274 -0.071666196 -0.26773122 -0.031976476 0.19513555 0.21380869 0.07028675 -0.3693978 -0.14704032 -0.31585366 -0.0350323 -0.16729599 -0.10057579 0.11032594 -0.08018903 0.037001953 -0.10817 -0.13907127 -0.12551057 0.046111174 0.14868324 0.18323365 -0.1117812 0.21570879 -0.101897955 -0.06641181 -0.019830948 -0.0361875 0.049288172 0.24469015 -0.22583523 0.15466501 -0.08090994 -0.129362 0.02294934 -0.0045376658 -0.2160483 -0.13613495 -0.07085769 -0.38608864
parts 0.08049666 -0.06901162 0.14932804 0.107287824 -0.31458506 0.18650131 0.02980914 0.29751143 -0.37568077 -0.05530523 -0.1707842 0.22609152 -0.030972842 0.29953572 -0.07153897 -0.16111341 0.10616349 0.033113793 0.026877377 0.11013309 0.05301244 0.058748063 0.15862994 0.22873054 0.16911171 -0.1707152 -0.08710494 -0.04511606 -0.22629802 -0.0151210185 -0.10703966 -0.052757923 0.088915505 -0.0004439983 -0.2180753 -0.0852714 0.116152324 -0.37926233 -0.21412174 0.17828518 -0.090706654 0.09385324 0.25964013 -0.23140809 0.070355386 0.16254845 0.22767094 -0.05796568 0.08560161 0.013498612 -0.102608815 -0.17301895 -0.061329924 -0.07984322 0.3302864 0.22348376 -0.3211106 0.21973394 0.034675144 0.42278185 0.17000756 -0.05113711 -0.29002643 -0.040115803 0.18833841 0.19172955 0.08199493 -0.38938615 -0.16877648 -0.33807385 -0.02551691 -0.193834 -0.11920084 0.09925195 -0.079253756 0.027667157 -0.094999544 -0.15611242 -0.12731269 0.049064208 0.16480678 0.20088142 -0.12703788 0.22680427 -0.10782395 -0.057389967 0.0023387768 -0.018277962 0.07435031 0.2570741 -0.2220575 0.16215956 -0.08485679 -0.11657123 0.020378385 -0.003613758 -0.22771148 -0.14378105 -0.08316696 -0.3755798
, 0.09236419 -0.09715727 0.17926538 0.123311125 -0.32804263 0.19616893 0.03573406 0.31550437 -0.39610898 -0.05940238 -0.22495352 0.21509758 -0.025707535 0.33986464 -0.09023308 -0.18708666 0.13499019 0.0180536 0.05429868 0.15382835 0.06425147 0.05368809 0.20586807 0.27062175 0.21420714 -0.15324475 -0.1250364 -0.060510572 -0.26350614 -0.04896967 -0.14804673 -0.020690596 0.09420457 0.039026055 -0.2571794 -0.09642994 0.1251801 -0.38818273 -0.2746401 0.14795569 -0.11946634 0.106434144 0.27689296 -0.26092374 0.07157773 0.18491273 0.23854937 -0.08137365 0.11375692 0.018463029 -0.104689956 -0.20986637 -0.03432635 -0.09630185 0.37378666 0.24036558 -0.3760984 0.22511804 0.06695727 0.458379 0.2090595 -0.0614056 -0.32446328 -0.06649716 0.23410687 0.22638315 0.07623689 -0.4633441 -0.21253824 -0.41167971 -0.0447724 -0.20583177 -0.15706839 0.13095896 -0.08538814 0.070211455 -0.06897716 -0.18622361 -0.13102104 0.035586406 0.13799475 0.21155155 -0.13651618 0.2505534 -0.14357081 -0.04435238 0.028721236 -0.054898538 0.08685625 0.32925037 -0.2902416 0.19009203 -0.08821904 -0.15207107 0.016259683 -0.035263453 -0.2656168 -0.20689785 -0.08252383 -0.4332665
http://www.meteck.org/teaching/OEbook/ontologies/AfricanWildlifeOntology4.owl#ObligateCarnivore 0.07378903 -0.058217764 0.15672238 0.09282894 -0.2852048 0.17896348 0.03892139 0.2703677 -0.33200735 -0.058765676 -0.17385185 0.19121239 -0.012472317 0.29580763 -0.06550009 -0.14556757 0.105379395 0.0063311197 0.022441737 0.11284683 0.040769342 0.06913175 0.14789909 0.22178766 0.15945823 -0.14861722 -0.09505216 -0.05054766 -0.19760396 -0.032594573 -0.10855161 -0.025008572 0.07898554 0.007665793 -0.20355211 -0.08668353 0.117758445 -0.33392155 -0.20150264 0.13396774 -0.084617265 0.07040789 0.22987011 -0.22102468 0.05946095 0.15194885 0.22088249 -0.048170637 0.109048344 0.0018841124 -0.08063809 -0.15650074 -0.061945777 -0.081209585 0.31881562 0.19343255 -0.29705703 0.2085054 0.045181725 0.3684197 0.16375245 -0.06643185 -0.26644972 -0.034751926 0.17989185 0.18429205 0.06656955 -0.367298 -0.16873802 -0.32270348 -0.01342615 -0.18303868 -0.11238055 0.09224294 -0.07701046 0.03089251 -0.08182959 -0.14742866 -0.13127017 0.031198071 0.13819718 0.18968295 -0.13183622 0.1991161 -0.1097044 -0.055027667 -0.018983355 -0.05026851 0.05403799 0.24007188 -0.22065154 0.15182787 -0.06327236 -0.121290416 0.018479297 -0.027605154 -0.20071688 -0.13182417 -0.077696115 -0.3528008
http://www.meteck.org/teaching/OEbook/ontologies/AfricanWildlifeOntology1.owl#eats 0.121521994 -0.063207194 0.17288812 0.09824864 -0.3333709 0.14767618 0.034464885 0.2899552 -0.3710427 -0.036904506 -0.20767885 0.24746172 -0.016584229 0.33494478 -0.06532722 -0.15512201 0.10654253 0.05912435 0.013617791 0.12573385 0.015129325 0.08226009 0.15452656 0.20410296 0.14848168 -0.18963681 -0.10133085 -0.019559247 -0.23157619 -0.03866104 -0.08496893 -0.01566221 0.100683786 -0.034361344 -0.21061988 -0.07715715 0.1284153 -0.3794235 -0.19904757 0.18883069 -0.11602387 0.100038 0.31353045 -0.22437234 0.059234694 0.16352378 0.25631222 -0.059478283 0.090689346 0.008878879 -0.10516621 -0.1804636 -0.06810492 -0.084199235 0.3767315 0.20376839 -0.3220157 0.2100567 0.033810735 0.3941705 0.20949495 -0.07618411 -0.26735786 -0.051647495 0.1913339 0.22774988 0.09896631 -0.37804043 -0.16322236 -0.32355726 -0.009250394 -0.16095206 -0.11317024 0.11474799 -0.07379434 0.025504299 -0.13874355 -0.14243144 -0.13534933 0.055309087 0.16045038 0.20307116 -0.111538656 0.23044686 -0.10043043 -0.07170101 -0.02154627 -0.021101521 0.046152208 0.23726723 -0.23045589 0.15405886 -0.07697265 -0.13204865 0.0101736365 -0.000994396 -0.20396632 -0.14544854 -0.060684163 -0.40630308
http://www.meteck.org/teaching/OEbook/ontologies/AfricanWildlifeOntology1.owl#Carnivore 0.097503215 -0.066767745 0.16325703 0.097548336 -0.28675675 0.17922701 0.041564792 0.2662006 -0.34148186 -0.038980648 -0.17118229 0.21814518 -0.031964067 0.30072644 -0.07223119 -0.1460696 0.11566538 0.00870206 0.030295786 0.12593786 0.05236698 0.060421016 0.15081784 0.22585754 0.17723598 -0.15191437 -0.078204595 -0.058507908 -0.20505774 -0.041137002 -0.08904568 -0.020794598 0.0984761 0.0122676445 -0.21640785 -0.10327781 0.11128347 -0.3380425 -0.2204588 0.15882589 -0.09164522 0.08473837 0.24288025 -0.21938549 0.058106907 0.13368703 0.22064112 -0.047216997 0.10859962 0.0055121854 -0.08113148 -0.16139811 -0.04459803 -0.08785874 0.3278605 0.19986543 -0.3230969 0.19317766 0.050325815 0.37796885 0.17384124 -0.056641296 -0.27396035 -0.03619663 0.17822382 0.19973479 0.06421842 -0.36539093 -0.17195334 -0.31138906 -0.019303346 -0.16990685 -0.10370758 0.094543576 -0.05843313 0.03411201 -0.073676474 -0.13038377 -0.12410989 0.039026387 0.12991092 0.17740329 -0.12407688 0.21520427 -0.10506798 -0.05747783 -0.019667871 -0.0339704 0.058729447 0.25728995 -0.21395743 0.16188242 -0.064505644 -0.12473962 0.033687826 -0.018854782 -0.22249548 -0.14507069 -0.0781095 -0.3787257
and 0.1337929 -0.047089625 0.15867305 0.13295716 -0.36657557 0.14556515 0.033160884 0.31541404 -0.40029043 0.001627859 -0.2270699 0.24344571 -0.02869203 0.3583159 -0.03742606 -0.18005255 0.1009359 0.07808468 0.027546436 0.11157435 0.00924406 0.11903211 0.17219651 0.21126287 0.17331652 -0.20846774 -0.13192283 -0.02516998 -0.23922093 -0.0424434 -0.11000741 -0.044472646 0.10286344 -0.055500135 -0.23576698 -0.09174656 0.14631754 -0.4282669 -0.18733661 0.21376379 -0.14690907 0.070369296 0.3427807 -0.21220645 0.04386087 0.19110906 0.26340422 -0.05502961 0.08447782 0.036918454 -0.12884018 -0.20282769 -0.072556466 -0.060134895 0.4093425 0.23708652 -0.3395884 0.2174766 0.038349815 0.42468506 0.22040188 -0.08026356 -0.30218026 -0.069695115 0.21438652 0.25092515 0.112141095 -0.38547698 -0.1715056 -0.35152102 -0.006706459 -0.19933797 -0.13440114 0.12657604 -0.078914054 0.021595102 -0.15669806 -0.15218775 -0.1587416 0.036030196 0.18983233 0.2451582 -0.09395195 0.25516626 -0.09499412 -0.09355219 -0.02401316 -0.027476473 0.012042902 0.2684839 -0.21066111 0.16270518 -0.06735218 -0.12461676 -0.007568358 0.029583802 -0.1940757 -0.15358713 -0.07322882 -0.43691707
http://www.meteck.org/teaching/OEbook/ontologies/AfricanWildlifeOntology1.owl#Animal 0.11612948 -0.05756036 0.17898212 0.096471645 -0.32716075 0.17073078 0.031973027 0.28086838 -0.36134514 -0.040422756 -0.19816901 0.2273742 -0.034214538 0.33045998 -0.0656414 -0.16790323 0.10564172 0.05693024 0.008246137 0.11900446 0.021151552 0.08826462 0.15947174 0.22441638 0.1676391 -0.1680272 -0.10305292 -0.02906812 -0.22261104 -0.044603065 -0.088849075 -0.017410016 0.08178363 -0.014131483 -0.22055303 -0.08706391 0.13980518 -0.3676019 -0.21289517 0.195719 -0.09889185 0.09556948 0.30047676 -0.22052737 0.05662033 0.15641002 0.24892445 -0.062091477 0.09530208 0.010233613 -0.11509021 -0.17914808 -0.06905674 -0.08863949 0.3637562 0.20326573 -0.334929 0.21364763 0.046664655 0.39597765 0.19821064 -0.062850304 -0.26789287 -0.045199316 0.18616708 0.2140999 0.08284082 -0.39478627 -0.15283561 -0.3443817 -0.02386403 -0.1668917 -0.10955815 0.10106656 -0.07840634 0.029250743 -0.1142186 -0.1301195 -0.1285559 0.05808288 0.1504509 0.19530389 -0.106885135 0.21427795 -0.10031112 -0.077829435 -0.009232359 -0.027270691 0.033995565 0.24084215 -0.2331652 0.1637127 -0.08070934 -0.111581035 0.00890098 0.004070808 -0.21392484 -0.14103918 -0.07285823 -0.4024264
or 0.11349536 -0.05088606 0.18536915 0.12190967 -0.34565672 0.15515293 0.038260967 0.32125658 -0.41216525 -0.019540327 -0.2199043 0.24004875 -0.03823657 0.33328676 -0.06467582 -0.16409728 0.10524304 0.08923672 0.027569186 0.11223359 -0.009630953 0.10644047 0.17097183 0.21235874 0.15955418 -0.19667009 -0.106527396 -0.028927539 -0.25374 -0.031852745 -0.11719448 -0.034153197 0.06494905 -0.031385303 -0.22662726 -0.087078 0.14750826 -0.40377408 -0.17619365 0.21378046 -0.113358594 0.10640503 0.33275697 -0.22529508 0.067885146 0.1716631 0.26827604 -0.054808304 0.091212705 0.02075556 -0.14043565 -0.18230468 -0.057736784 -0.064498655 0.3881543 0.24502136 -0.37064105 0.21787407 0.031158652 0.41168186 0.24104445 -0.07718492 -0.2842485 -0.06390612 0.21261549 0.25030288 0.09847198 -0.4043379 -0.16159987 -0.36129248 -0.009571758 -0.19719353 -0.123541646 0.12324544 -0.08877415 0.021749936 -0.14141856 -0.1268726 -0.15281798 0.034070678 0.19547942 0.21208997 -0.08632446 0.25184375 -0.08130502 -0.077845566 -0.009495187 0.0051685087 0.041893218 0.2448937 -0.23374633 0.16886325 -0.083327025 -0.11020749 0.007631052 0.026203929 -0.23235506 -0.15564051 -0.089183465 -0.4101155
the 0.10717586 -0.08121168 0.18521214 0.124293625 -0.33428007 0.20103666 0.043040074 0.32494605 -0.38542414 -0.05268538 -0.22547863 0.22743233 -0.033245716 0.36122653 -0.08305146 -0.1728277 0.14544901 0.016598783 0.048693523 0.1517499 0.0662957 0.057449784 0.20363052 0.25878203 0.20442356 -0.15409963 -0.13288356 -0.04154858 -0.25972593 -0.03448543 -0.13405798 -0.033530034 0.106516816 0.018791601 -0.26587272 -0.08323352 0.14068317 -0.4064003 -0.26247257 0.15171893 -0.116875365 0.1034104 0.27242294 -0.26234588 0.063229024 0.20685092 0.24988438 -0.08007465 0.11514246 0.022085354 -0.1020383 -0.22878951 -0.030767476 -0.09458904 0.38520873 0.24310075 -0.36577693 0.22338806 0.058632392 0.46025273 0.1985297 -0.07231394 -0.33370903 -0.06604882 0.23161022 0.24160436 0.08935975 -0.44420817 -0.21592735 -0.4084433 -0.031495016 -0.21315002 -0.15235463 0.14509587 -0.08839349 0.062726974 -0.090951554 -0.16875261 -0.1510908 0.026065422 0.14476866 0.2211379 -0.15283372 0.24507628 -0.1373365 -0.060802013 0.008817764 -0.07724717 0.06307309 0.31497556 -0.29590526 0.19173695 -0.085750446 -0.16013324 0.032020856 -0.02823252 -0.28609622 -0.20466693 -0.07834336 -0.4433153
obligate 0.07080795 -0.07144603 0.13489474 0.091119364 -0.28797907 0.17057136 0.042431 0.26607686 -0.32658747 -0.060614925 -0.16100022 0.21789694 -0.03976555 0.30843434 -0.06762637 -0.14762211 0.11204095 0.009978777 0.014247371 0.13820183 0.05410631 0.076950714 0.1550328 0.22390984 0.16148174 -0.14577761 -0.075904004 -0.048541326 -0.20562328 -0.010888392 -0.10691129 -0.038029842 0.09298471 0.0011551422 -0.20059401 -0.10447303 0.12120577 -0.34648427 -0.21159485 0.1535431 -0.08381106 0.073313735 0.2428094 -0.21591543 0.062129788 0.14201872 0.22632147 -0.03512899 0.114783265 -0.0023041714 -0.07989585 -0.17607282 -0.069462195 -0.06784349 0.30558294 0.20837922 -0.29605946 0.22276641 0.048131403 0.40089402 0.15639296 -0.044064667 -0.27490622 -0.039013147 0.17338097 0.19028707 0.08681705 -0.3864994 -0.14491265 -0.31941408 -0.011051592 -0.16583252 -0.11337953 0.09131311 -0.049024682 0.029763281 -0.08665581 -0.14652157 -0.1340836 0.033776417 0.13523191 0.18163182 -0.124793336 0.18594553 -0.10114629 -0.040557675 -0.011003248 -0.04091881 0.046191268 0.25909993 -0.22641914 0.15668042 -0.072520815 -0.12875243 0.02503297 -0.023311563 -0.2241565 -0.12959036 -0.054844588 -0.37596878
http://www.meteck.org/teaching/OEbook/ontologies/AfricanWildlifeOntology1.owl#Root 0.09642326 -0.04953156 0.1594713 0.08726634 -0.28767443 0.17505187 0.05169977 0.27519947 -0.33852622 -0.052408867 -0.16418184 0.19843106 -0.027995635 0.30574557 -0.059592813 -0.1540199 0.08916666 0.015162608 0.038009252 0.11275148 0.05021253 0.055789396 0.1657033 0.22021517 0.16321172 -0.14685841 -0.087084256 -0.050561678 -0.19676197 -0.022831058 -0.09018145 -0.03173655 0.08584186 -0.0019197835 -0.20127364 -0.084304795 0.108201556 -0.32862297 -0.19775106 0.1335597 -0.08918494 0.07408323 0.25418484 -0.21309575 0.06335332 0.15073256 0.22101183 -0.06501163 0.0872292 0.008105614 -0.09503255 -0.16025688 -0.054643426 -0.0836587 0.30463493 0.18663569 -0.31315657 0.19142902 0.04717426 0.3772378 0.16906175 -0.06200823 -0.2526385 -0.030664984 0.182473 0.19505197 0.07392259 -0.36549303 -0.16508299 -0.30582467 -0.03185808 -0.17468685 -0.105843544 0.09593008 -0.077581555 0.043703143 -0.09375369 -0.14390254 -0.10825748 0.04801446 0.12603961 0.18761522 -0.10914278 0.19399546 -0.109638795 -0.056681685 -0.016506307 -0.042163134 0.04661425 0.23686239 -0.2141643 0.15457419 -0.08457885 -0.124170564 0.01262204 -0.010816689 -0.21238475 -0.13338418 -0.06548212 -0.35604066
is 0.10602997 -0.07691852 0.18048188 0.12429892 -0.3617772 0.12664703 0.026180394 0.3092199 -0.43921196 0.007486596 -0.21039727 0.25054276 -0.03705924 0.32448724 -0.063025795 -0.15456884 0.09804619 0.08861537 0.008909659 0.10956651 -0.026605638 0.08726118 0.20361842 0.21766528 0.15749377 -0.18540108 -0.13089895 -0.03458841 -0.2609365 -0.015411326 -0.112506114 -0.040419724 0.04061562 -0.015687248 -0.25730127 -0.09156233 0.13643274 -0.43770567 -0.16817345 0.25069112 -0.12758566 0.089640625 0.31706366 -0.20101075 0.06546794 0.20187108 0.2769882 -0.06302598 0.07186054 0.03812403 -0.14600317 -0.1667318 -0.08060995 -0.04611707 0.41750157 0.23877344 -0.39331877 0.23958239 0.015721062 0.42125767 0.25955808 -0.069260746 -0.32283264 -0.043866135 0.21079615 0.2600848 0.11954462 -0.40780416 -0.16914216 -0.3966992 -0.0018692036 -0.19868359 -0.14424357 0.108386524 -0.061895993 0.025162142 -0.14370495 -0.1259541 -0.13519152 0.024637854 0.22044666 0.25059518 -0.060404465 0.2623942 -0.06429913 -0.089659244 0.0030386923 0.027087376 0.029002309 0.26202288 -0.23930204 0.16962507 -0.061698075 -0.12251004 -0.014948475 0.040362757 -0.24287081 -0.13241467 -0.12003619 -0.42123675
only 0.13037948 -0.042286154 0.16733795 0.13795972 -0.36048383 0.13084453 0.03016215 0.31252083 -0.40267593 -0.004512333 -0.23116444 0.26838294 -0.053154934 0.32548907 -0.049483895 -0.17191981 0.09780448 0.10861983 -0.0046308762 0.10772942 -0.025548812 0.11546731 0.18496317 0.19496585 0.15891874 -0.18270642 -0.114126004 -0.003922273 -0.24267562 -0.04481017 -0.117426656 -0.03470941 0.057587102 -0.05027307 -0.23936209 -0.07555669 0.13969578 -0.41368422 -0.15278098 0.2435367 -0.11347202 0.08208659 0.34351254 -0.2138322 0.07374844 0.18913707 0.2669965 -0.051193643 0.08765738 0.025815375 -0.13663174 -0.191704 -0.07303818 -0.056901537 0.4132276 0.24460551 -0.35472706 0.19766997 0.035097945 0.40305212 0.2402991 -0.06593498 -0.28514114 -0.06914996 0.20687269 0.26200667 0.11075335 -0.39699668 -0.15608248 -0.35253662 -0.019843342 -0.17561871 -0.121736094 0.123616315 -0.0831404 0.012786662 -0.15488204 -0.12916072 -0.15137751 0.039997086 0.21090525 0.21681473 -0.0674096 0.23510922 -0.08260294 -0.10151164 -0.019619107 0.02191609 0.011079403 0.23970096 -0.23622319 0.16809464 -0.076601304 -0.10547308 0.010978526 0.04084627 -0.2334831 -0.14911728 -0.10550834 -0.41961682
part 0.090022355 -0.06179809 0.17175655 0.12416498 -0.36185813 0.15411395 0.04477546 0.3201719 -0.43371698 -0.015523624 -0.18855402 0.25268203 -0.06350423 0.3224368 -0.06410557 -0.14891239 0.08319232 0.09488439 0.02170876 0.13537206 -0.001770898 0.08760468 0.19791295 0.20696291 0.15603998 -0.20247242 -0.13012987 -0.041625254 -0.26350588 -0.040797587 -0.11893177 -0.065912254 0.035912216 -0.014222668 -0.25636014 -0.0955901 0.12689523 -0.42876112 -0.17861535 0.24445787 -0.1153645 0.096137576 0.31344712 -0.19821528 0.04778544 0.1860086 0.26456097 -0.038800903 0.07874087 0.034268536 -0.13474648 -0.18147697 -0.052159432 -0.048991166 0.391586 0.23949876 -0.3653007 0.2220975 0.015985468 0.4121503 0.22954875 -0.083905 -0.30689844 -0.04059448 0.2220815 0.2435073 0.10981451 -0.40750408 -0.15753208 -0.38880023 -0.004748294 -0.1853531 -0.12832639 0.102029234 -0.058713574 0.03221716 -0.13756669 -0.11882757 -0.13091686 0.016109608 0.21167678 0.24684311 -0.087811396 0.23941271 -0.070448905 -0.08738912 -0.012998093 0.02201019 0.03343427 0.2631306 -0.2332521 0.16261421 -0.060900252 -0.10726032 -0.010489418 0.024410013 -0.24477823 -0.14773926 -0.10906381 -0.41418955
http://www.meteck.org/teaching/OEbook/ontologies/AfricanWildlifeOntology1.owl#Impala 0.09413549 -0.054943964 0.15428239 0.10593952 -0.29848924 0.17123191 0.040832274 0.28614637 -0.35668752 -0.04142575 -0.1896853 0.22334678 -0.02660111 0.3048087 -0.059557233 -0.16226527 0.098106235 0.019999087 0.02709565 0.10663111 0.056174543 0.062407147 0.16610087 0.22242433 0.17881776 -0.15858556 -0.09462299 -0.05564555 -0.20840223 -0.022112379 -0.10008896 -0.027635423 0.07667231 0.01288827 -0.20954809 -0.087642394 0.12349884 -0.36534804 -0.22907391 0.1649599 -0.0860382 0.099155396 0.2755386 -0.227829 0.07498681 0.1543196 0.23293132 -0.056371 0.11175936 0.02053509 -0.10821586 -0.1903563 -0.061970796 -0.079766385 0.34067994 0.20907305 -0.3280545 0.21880013 0.037335858 0.4029209 0.18341343 -0.066187695 -0.2719073 -0.027828135 0.19573584 0.20725307 0.08231602 -0.4002399 -0.16750304 -0.34528977 -0.031565666 -0.19473957 -0.114514284 0.09705671 -0.073521264 0.03131246 -0.09561844 -0.13820736 -0.13037883 0.04879432 0.15211959 0.18161485 -0.13067077 0.22061788 -0.10250222 -0.06535017 -0.021052474 -0.026780792 0.07121859 0.2464289 -0.23242664 0.16941859 -0.087600864 -0.13586354 0.013360107 -0.011441283 -0.23135373 -0.15516147 -0.07835013 -0.3819108
http://www.meteck.org/teaching/OEbook/ontologies/AfricanWildlifeOntology1.owl#Omnivore 0.08393802 -0.06415626 0.15185098 0.10681177 -0.28182593 0.1729923 0.032204464 0.28147405 -0.34349403 -0.03839265 -0.18666162 0.22218813 -0.015587974 0.2945376 -0.058623433 -0.1564252 0.09957058 0.010518677 0.031547423 0.112907864 0.048263304 0.067627884 0.16591494 0.22812839 0.15306519 -0.14591886 -0.102182865 -0.046236183 -0.21259795 -0.029236604 -0.095162466 -0.016625658 0.08383188 0.018565357 -0.21322136 -0.09504577 0.11405589 -0.35079023 -0.21003404 0.15982835 -0.09079111 0.07956006 0.26811495 -0.22358888 0.051577415 0.1581734 0.21954359 -0.04515453 0.10964275 0.018989513 -0.09103331 -0.16396205 -0.041115038 -0.08950246 0.31296483 0.19544382 -0.31316864 0.20568173 0.03538258 0.38945293 0.16874497 -0.060250334 -0.2674523 -0.038890198 0.18364142 0.19598666 0.074877195 -0.3725432 -0.15167348 -0.32902846 -0.02674577 -0.17858972 -0.110976726 0.09452889 -0.071313195 0.023869824 -0.08601453 -0.13454168 -0.11161184 0.04151992 0.12679102 0.1789935 -0.13036102 0.21500264 -0.09799356 -0.055501744 -0.020969866 -0.047943324 0.06761369 0.24686113 -0.23137942 0.15013947 -0.08159048 -0.12041369 0.032408115 -0.019146016 -0.20909554 -0.15566799 -0.08075976 -0.38674942
http://www.meteck.org/teaching/OEbook/ontologies/AfricanWildlifeOntology1.owl#Lion 0.10419745 -0.059796292 0.16242754 0.08889117 -0.3077999 0.17548893 0.029817555 0.26771942 -0.34630117 -0.039284926 -0.18958355 0.21131524 -0.021407682 0.30570862 -0.06451007 -0.16239876 0.10472166 0.03236196 0.029250288 0.123067915 0.033151954 0.059335448 0.16188052 0.20885871 0.1671433 -0.15151511 -0.09838594 -0.041917514 -0.20807573 -0.040202793 -0.09350751 -0.033059347 0.09636974 0.0059615476 -0.21628852 -0.08244854 0.112561606 -0.35108894 -0.19762948 0.16732338 -0.085650675 0.08490299 0.2623881 -0.22062783 0.06339364 0.15191275 0.22962774 -0.056699306 0.102669634 0.007791863 -0.092397876 -0.18267979 -0.063936815 -0.080618456 0.3296039 0.20775145 -0.31847417 0.19162428 0.0403058 0.38729742 0.18089631 -0.060078833 -0.27585533 -0.03881104 0.18992808 0.21043548 0.07949495 -0.37035534 -0.16445048 -0.32076928 -0.029838655 -0.18508345 -0.10557177 0.10348069 -0.06732276 0.034318976 -0.09005931 -0.14735961 -0.13590546 0.03243241 0.15084837 0.18329638 -0.11745269 0.21205978 -0.11369373 -0.061050095 -0.019975018 -0.042599756 0.042502478 0.2536251 -0.22108133 0.16980143 -0.077138074 -0.13025545 0.019159798 -0.0031647426 -0.21166927 -0.1532239 -0.07281231 -0.36636966
http://www.meteck.org/teaching/OEbook/ontologies/AfricanWildlifeOntology1.owl#FruitingBody 0.09172523 -0.047380596 0.15571177 0.08479522 -0.2835556 0.18110284 0.045022655 0.28432217 -0.3493307 -0.035728853 -0.18546794 0.21988262 -0.031036692 0.30172956 -0.053023193 -0.16240416 0.09250951 0.026247354 0.017053341 0.117961586 0.058103282 0.06874836 0.15901339 0.21654704 0.16774069 -0.15486272 -0.09329842 -0.054228153 -0.20285693 -0.026265522 -0.09599023 -0.03445448 0.0921051 0.013162184 -0.21367128 -0.080447495 0.11606637 -0.34736282 -0.20550306 0.15035622 -0.08342758 0.07865592 0.2628954 -0.208181 0.049014475 0.15630943 0.20744096 -0.062150035 0.108612716 0.0036057648 -0.095368415 -0.17731924 -0.045410194 -0.08590313 0.32080686 0.2096965 -0.31243584 0.20496844 0.03699314 0.37965786 0.18469003 -0.05437815 -0.25957608 -0.043881483 0.17737807 0.20445628 0.07672395 -0.38364264 -0.15814461 -0.31926644 -0.024858767 -0.16588183 -0.12180098 0.09602854 -0.08236784 0.03983093 -0.085326485 -0.13105902 -0.11966564 0.037004236 0.13917491 0.1752228 -0.11821663 0.21095727 -0.1025369 -0.06315484 -0.015136661 -0.046906076 0.053627662 0.24827664 -0.21429886 0.1660774 -0.08411306 -0.127751 0.021787127 -0.021366082 -0.21995172 -0.13599344 -0.06146976 -0.37019587
grass 0.09639764 -0.04819787 0.1467583 0.107125886 -0.31149 0.17629686 0.031520616 0.29256788 -0.3735823 -0.042470273 -0.19560902 0.2315751 -0.024349077 0.32242033 -0.056102917 -0.1700425 0.096427865 0.029504776 0.022017267 0.11981975 0.023527682 0.07459832 0.1688747 0.21248797 0.1647363 -0.18756577 -0.1102372 -0.04064159 -0.21841177 -0.033823177 -0.1070056 -0.03494251 0.08440097 -0.016906338 -0.21616109 -0.09624044 0.13139823 -0.3738356 -0.20424694 0.17130755 -0.10824518 0.085956484 0.29074183 -0.22814922 0.051186632 0.15148287 0.23340152 -0.058921173 0.087232694 0.019300489 -0.10482106 -0.18226872 -0.05681763 -0.06569805 0.33893338 0.2095331 -0.3146875 0.20964466 0.035343885 0.40296713 0.18130523 -0.07736948 -0.27713606 -0.044759344 0.20681532 0.211453 0.095976464 -0.3870168 -0.1570774 -0.35051277 -0.024400378 -0.17382802 -0.11042838 0.11620448 -0.07987085 0.018940298 -0.10243741 -0.1461925 -0.14178693 0.0494135 0.17045122 0.20274746 -0.1126568 0.22902162 -0.10839624 -0.06248781 -0.019592445 -0.020496208 0.05714811 0.26613888 -0.21091966 0.15145764 -0.07941852 -0.12674135 0.020120982 0.0010815115 -0.20623465 -0.15036397 -0.067351446 -0.39839062
. 0.09256473 -0.06599239 0.16993397 0.11040943 -0.35871404 0.19965498 0.036998525 0.33100027 -0.39952895 -0.059750583 -0.22848026 0.24089845 -0.038889613 0.36448398 -0.08612907 -0.17771775 0.12204632 0.019016683 0.028686963 0.13263918 0.05944523 0.08646256 0.20781803 0.24913241 0.19770077 -0.17838871 -0.12515521 -0.059026517 -0.2525404 -0.042584937 -0.13789617 -0.026527151 0.10782965 0.010775473 -0.23806176 -0.08397169 0.14705794 -0.41479635 -0.23147339 0.17420867 -0.10574289 0.11631252 0.28064415 -0.2581155 0.060364448 0.17485867 0.24873754 -0.0635748 0.124084726 0.015694968 -0.11852914 -0.20410876 -0.042242754 -0.07507068 0.37582108 0.23560403 -0.36621043 0.2280507 0.044513073 0.4501316 0.20014045 -0.07080294 -0.32462004 -0.057880443 0.22876392 0.23983756 0.08755651 -0.4520624 -0.18822841 -0.38757566 -0.028139869 -0.21319354 -0.13557622 0.120427385 -0.088156246 0.03899639 -0.09928344 -0.16042508 -0.14426865 0.034957733 0.16412891 0.21873185 -0.14766248 0.25679478 -0.13635442 -0.06522317 -0.0006057489 -0.059867173 0.05116004 0.3050831 -0.27310395 0.18964083 -0.08854021 -0.15737839 0.020381073 -0.019218555 -0.2651317 -0.18956493 -0.06353923 -0.4378045
http://www.meteck.org/teaching/OEbook/ontologies/AfricanWildlifeOntology1.owl#Grass 0.09847645 -0.05233308 0.15144141 0.088312805 -0.29954645 0.17333244 0.048554502 0.27989435 -0.3470683 -0.039996665 -0.18993755 0.21471037 -0.024667723 0.3050845 -0.056883857 -0.1403781 0.10052548 0.024963088 0.024640692 0.10423458 0.029781684 0.06786184 0.16525488 0.21106064 0.16895522 -0.16562884 -0.09460678 -0.040155664 -0.21084586 -0.044625647 -0.10802673 -0.014024707 0.09091606 -0.0057822927 -0.21320261 -0.096946076 0.12642346 -0.35432985 -0.20015909 0.14907433 -0.09273391 0.07981416 0.26559243 -0.22639433 0.0504032 0.14539416 0.21452835 -0.06423648 0.10479459 0.009225243 -0.096693344 -0.17202482 -0.04118871 -0.08220695 0.32220808 0.19555682 -0.31427163 0.18756005 0.04449875 0.36876252 0.17117001 -0.07060116 -0.26773706 -0.036310017 0.1849908 0.21323828 0.07153213 -0.36290872 -0.16951947 -0.320234 -0.014557297 -0.17105559 -0.10134331 0.1003367 -0.08339882 0.03722258 -0.10261876 -0.13469622 -0.12162553 0.05271396 0.14054075 0.19470209 -0.123176135 0.20863485 -0.11213689 -0.054968927 -0.0068819923 -0.026743947 0.055461418 0.24137178 -0.22741956 0.16616786 -0.07469037 -0.12851922 0.02821829 -0.0005099584 -0.20772868 -0.13878223 -0.0800584 -0.3803761
lion 0.09486794 -0.060821615 0.15346678 0.0989565 -0.32018283 0.18412769 0.044610888 0.30204296 -0.36650458 -0.0406941 -0.19687736 0.23561558 -0.03375349 0.31979606 -0.057967056 -0.16942173 0.12305187 0.02902916 0.03585477 0.116711855 0.045155633 0.079919584 0.1745594 0.22326134 0.18577576 -0.17757197 -0.09908848 -0.047246538 -0.24000947 -0.0221256 -0.120784655 -0.042280838 0.100487135 0.005358067 -0.21691647 -0.093231246 0.13036914 -0.38926053 -0.2077354 0.17580488 -0.11310757 0.08411784 0.2813057 -0.235285 0.05554706 0.16490243 0.23211984 -0.061807502 0.10656148 0.011988231 -0.10130099 -0.18381506 -0.061449416 -0.07756086 0.3569096 0.22812194 -0.32533494 0.2129504 0.052617352 0.42987332 0.1810269 -0.061338317 -0.29417902 -0.03612117 0.20514168 0.22930548 0.0811375 -0.4129345 -0.15897207 -0.35360074 -0.01937985 -0.19625959 -0.12813923 0.119175225 -0.08258395 0.032602977 -0.10631724 -0.15708295 -0.14797087 0.049733505 0.16919854 0.1978692 -0.12963346 0.22692813 -0.11480892 -0.0591548 -0.014498354 -0.04665602 0.05037414 0.27095577 -0.24125019 0.17700028 -0.093157955 -0.1427196 0.015764372 -0.008826049 -0.23397233 -0.15887368 -0.081825875 -0.40324464
impala 0.093866065 -0.07613954 0.16751134 0.12186204 -0.32584468 0.19351937 0.037348114 0.2881507 -0.37956652 -0.053933788 -0.20916769 0.230383 -0.033278298 0.33708724 -0.06955521 -0.17076096 0.11712765 0.013573383 0.037778243 0.11552535 0.05566661 0.08155128 0.18764947 0.23515017 0.17980982 -0.15863825 -0.11118802 -0.049196605 -0.22061066 -0.022207016 -0.10011979 -0.040820587 0.0999806 0.001088236 -0.22552419 -0.07970982 0.13054052 -0.37246493 -0.23696229 0.16267551 -0.104317814 0.09186875 0.28240183 -0.24397299 0.07008126 0.1636234 0.23221448 -0.07208928 0.112153105 0.025724536 -0.09591045 -0.20311092 -0.06068829 -0.07740746 0.35860857 0.20910704 -0.3400501 0.20721829 0.038844127 0.4271048 0.18190184 -0.073024616 -0.2949071 -0.038812187 0.20656185 0.20633453 0.09117263 -0.40313682 -0.16795701 -0.35240713 -0.029433511 -0.18595737 -0.12397389 0.10369193 -0.07178482 0.032046255 -0.08123483 -0.15662071 -0.12932928 0.0444216 0.14990363 0.19210023 -0.12319421 0.21970436 -0.122347854 -0.06273076 -0.0074165952 -0.049692806 0.06984901 0.270261 -0.25307122 0.16785122 -0.07913562 -0.14558879 0.009664631 -0.01564357 -0.24486764 -0.1684758 -0.08021059 -0.41129395
in 0.10645651 -0.07393592 0.18505765 0.12233068 -0.34668612 0.18277171 0.035643473 0.3054435 -0.38696885 -0.039535392 -0.21543126 0.23195374 -0.03630818 0.35343382 -0.06329449 -0.16158494 0.12061428 0.012653275 0.046753712 0.13298622 0.06550702 0.07802141 0.19215827 0.26481563 0.19612901 -0.1724882 -0.12918648 -0.06327897 -0.24741459 -0.03964824 -0.13540865 -0.040193904 0.105283655 0.022105554 -0.2582603 -0.092833415 0.11695693 -0.38243902 -0.22427452 0.17488647 -0.10887027 0.10503428 0.2885003 -0.24705233 0.052177873 0.1855552 0.24150455 -0.05958236 0.10801225 0.03486887 -0.11605794 -0.21291514 -0.05999892 -0.08289792 0.37645933 0.22553188 -0.36275762 0.23634203 0.055177785 0.44119552 0.19750504 -0.06938522 -0.32957476 -0.056073587 0.22489208 0.22393426 0.0964066 -0.42171314 -0.19784549 -0.3933333 -0.009104882 -0.20710643 -0.13396716 0.1376265 -0.0700124 0.049685016 -0.10591281 -0.16827762 -0.15124968 0.027143002 0.14238079 0.23050384 -0.14673279 0.23948877 -0.11646896 -0.057052597 -0.010642124 -0.054903317 0.06637777 0.28679553 -0.2590608 0.17129435 -0.103959 -0.1318585 0.024498897 -0.031891685 -0.24226923 -0.1874682 -0.055541854 -0.40961614
omnivore 0.10524472 -0.049353454 0.1567198 0.113891125 -0.31821334 0.1735562 0.031323496 0.29233563 -0.35796836 -0.045051496 -0.19798812 0.21908775 -0.022627495 0.31945127 -0.059215933 -0.16266212 0.10385998 0.028016977 0.032748386 0.13084656 0.042705335 0.085609734 0.17914733 0.21618375 0.16770819 -0.17160638 -0.11347676 -0.054077435 -0.21956828 -0.032972462 -0.116804086 -0.038753405 0.07927175 -0.0039973157 -0.23241334 -0.08172547 0.13146469 -0.37860602 -0.21005598 0.17956115 -0.08833991 0.07570185 0.2857522 -0.23610285 0.04794042 0.15729281 0.23874675 -0.062021136 0.09748754 0.012115267 -0.10409809 -0.16923706 -0.06204153 -0.08271753 0.33821505 0.20724542 -0.33710444 0.21747753 0.044110075 0.40973562 0.1946179 -0.064246826 -0.29385003 -0.046097476 0.19707936 0.21911472 0.07719654 -0.40150094 -0.15622857 -0.34907347 -0.030309347 -0.179276 -0.12534466 0.11514398 -0.06778247 0.024985967 -0.09654672 -0.1467237 -0.1294402 0.030943561 0.1513527 0.19413969 -0.11878067 0.21441826 -0.10992403 -0.056290925 -0.0054086517 -0.038973525 0.04659343 0.2662461 -0.23804235 0.15306674 -0.06933597 -0.121447265 0.021676477 -0.0010080023 -0.23255336 -0.1586716 -0.080417804 -0.40766826
to 0.109307826 -0.1024173 0.17794594 0.1234432 -0.3357866 0.19686766 0.038488023 0.32494384 -0.3930432 -0.056648828 -0.22684056 0.2386449 -0.012955118 0.3557297 -0.09564164 -0.17761113 0.14921999 0.041532904 0.03667481 0.13461964 0.06465413 0.075382225 0.218767 0.25105315 0.1964222 -0.16479985 -0.13181159 -0.04199692 -0.26341355 -0.0336306 -0.120443076 -0.024470987 0.105085626 0.0149548305 -0.2469027 -0.09949728 0.11864817 -0.40200695 -0.25801963 0.16753207 -0.12481455 0.104054354 0.27859277 -0.265305 0.0742732 0.18662016 0.25975436 -0.08478037 0.12872016 0.015445467 -0.12485869 -0.2199993 -0.034714032 -0.07801436 0.3748546 0.24423552 -0.3751544 0.22822407 0.053760026 0.46650535 0.22323266 -0.05850471 -0.3466541 -0.059529018 0.22648095 0.22934571 0.087171145 -0.46284556 -0.21222052 -0.4123134 -0.035026502 -0.20740965 -0.15268509 0.1471937 -0.092722796 0.04035152 -0.09759588 -0.16402853 -0.15268253 0.021958956 0.16280487 0.228466 -0.14671475 0.26395756 -0.11570585 -0.06391086 0.013003032 -0.07127951 0.06189027 0.318676 -0.28944463 0.20665067 -0.07362206 -0.15304531 0.013543702 -0.037043728 -0.27501974 -0.20139879 -0.07689058 -0.43895495
body 0.100097574 -0.050374515 0.14388521 0.120808594 -0.3072193 0.18918316 0.03096229 0.31042823 -0.37305862 -0.02427085 -0.19860272 0.21824403 -0.024996486 0.32706666 -0.039474808 -0.18045992 0.11591851 0.015450701 0.029981477 0.1320848 0.03819875 0.0864302 0.18293172 0.24362858 0.16998696 -0.19075982 -0.11402928 -0.037619848 -0.2029267 -0.026717322 -0.114310525 -0.058321614 0.083923936 -0.020157076 -0.19276719 -0.086880974 0.11478943 -0.39812988 -0.19715065 0.19270863 -0.0883604 0.06791287 0.27075133 -0.23161757 0.067846276 0.17006704 0.24334832 -0.0680452 0.07909959 0.031457953 -0.08068523 -0.17302483 -0.08334872 -0.09178929 0.3186267 0.22118694 -0.30561778 0.21900034 0.035963006 0.42058215 0.17367758 -0.0521762 -0.26179436 -0.035976727 0.21705957 0.20782559 0.085014455 -0.38948235 -0.14983474 -0.3289159 -0.037232485 -0.1668601 -0.14047669 0.10590148 -0.087605305 0.033133477 -0.11459432 -0.15679935 -0.12499755 0.05833139 0.16631421 0.22633138 -0.1224748 0.20903155 -0.13413255 -0.07882832 -0.012421721 -0.027058689 0.04460012 0.25717202 -0.19516855 0.16425622 -0.092347205 -0.14183709 0.010084777 -0.007319463 -0.18525429 -0.13484281 -0.058398478 -0.38968495
fruiting 0.08837334 -0.04852236 0.1584526 0.11672381 -0.32576194 0.17883693 0.022299461 0.3005767 -0.34941685 -0.024824565 -0.16600813 0.22308515 -0.0444333 0.3215934 -0.04034728 -0.17671208 0.0809834 0.012438488 0.045506615 0.11616844 0.06177473 0.09320244 0.16554746 0.23610902 0.16307266 -0.19845007 -0.10241545 -0.040621493 -0.2343814 -0.034917224 -0.12149302 -0.03302365 0.10669823 0.0060343607 -0.22238798 -0.08241873 0.14274111 -0.37314364 -0.21770453 0.16370809 -0.08924653 0.07800491 0.2943642 -0.20083082 0.03898461 0.16491832 0.21946624 -0.048771583 0.08095282 0.012867776 -0.10356666 -0.1976425 -0.048751283 -0.09488327 0.33035365 0.20512843 -0.33013487 0.20801108 0.059947435 0.42635223 0.18247624 -0.064341545 -0.2607895 -0.056232035 0.21564895 0.19169778 0.074112296 -0.3848088 -0.18360472 -0.32292452 -0.004982979 -0.19238855 -0.1026317 0.11345325 -0.059834365 0.039901298 -0.10220011 -0.16695756 -0.11400548 0.052716535 0.17422397 0.22456314 -0.13766934 0.21994595 -0.124364056 -0.08289742 0.0001310959 -0.01467396 0.07179571 0.27504337 -0.19833155 0.15885672 -0.05518879 -0.11994959 0.015977345 -0.011489929 -0.19842772 -0.124720864 -0.065154254 -0.390328
root 0.085625656 -0.0691219 0.16103676 0.11027402 -0.3018615 0.18659882 0.038908806 0.29272896 -0.35412607 -0.048592117 -0.17670627 0.20798157 -0.027259897 0.32502314 -0.057283677 -0.14865352 0.095976286 0.022880452 0.03808221 0.124418594 0.052749895 0.070020005 0.17468077 0.22272627 0.17811212 -0.17660342 -0.10460176 -0.05753854 -0.21446902 -0.038309496 -0.110439494 -0.02654906 0.08497678 -0.0055674426 -0.22795126 -0.092297085 0.13064724 -0.36779648 -0.20290591 0.1562132 -0.09609969 0.077896446 0.26600394 -0.22184591 0.06536177 0.15216117 0.23407097 -0.05392852 0.09379902 0.025792656 -0.09929425 -0.18624867 -0.044499885 -0.071155235 0.3265339 0.21940331 -0.31464192 0.21689111 0.04189021 0.4095392 0.18369585 -0.061234556 -0.27642095 -0.03880378 0.19846274 0.212465 0.078863196 -0.39919603 -0.17400147 -0.32991245 -0.012925647 -0.18044902 -0.1257297 0.11154629 -0.08235123 0.030522296 -0.09782526 -0.15893273 -0.122098394 0.043055337 0.14456679 0.20189387 -0.13317259 0.21497826 -0.11120633 -0.06378436 -0.0039897505 -0.04144221 0.045403637 0.25888172 -0.212964 0.16172194 -0.0907931 -0.11568453 0.014130479 -0.017678441 -0.21525997 -0.15275595 -0.06257096 -0.39159217
giraffe 0.09778854 -0.059809588 0.1567447 0.11134637 -0.3268187 0.18116285 0.044555947 0.30406916 -0.3728757 -0.047247577 -0.19517457 0.2299122 -0.021340007 0.31101468 -0.069760226 -0.16952328 0.10717455 0.026453523 0.03727149 0.1134806 0.04707479 0.07864896 0.17612983 0.23113011 0.16457935 -0.16612262 -0.10674871 -0.043778133 -0.22504365 -0.030554209 -0.1181826 -0.035844747 0.086117096 -0.007731321 -0.21998781 -0.096212395 0.1236299 -0.37454674 -0.22434345 0.17980956 -0.101117395 0.07848825 0.27708894 -0.22842114 0.06734048 0.16837251 0.23733415 -0.05005585 0.097385556 0.016379101 -0.10996185 -0.18006296 -0.06297358 -0.072836 0.3572212 0.22591512 -0.32748654 0.20418686 0.03979129 0.42475194 0.18770148 -0.074836455 -0.2938064 -0.040103868 0.19960475 0.20506904 0.08659255 -0.4085288 -0.1693404 -0.3628085 -0.020521762 -0.18890107 -0.11194284 0.106392466 -0.08566017 0.027118187 -0.105128236 -0.15245162 -0.1434798 0.038258925 0.16503446 0.20633633 -0.11981421 0.23436272 -0.10745659 -0.059137326 0.00048759562 -0.04303547 0.06166826 0.25720975 -0.23071961 0.17927682 -0.081987254 -0.1384851 0.01314849 -0.014389871 -0.21839127 -0.14716092 -0.07240773 -0.3887726
proper 0.103401855 -0.065643005 0.18006164 0.13699304 -0.3465977 0.11921938 0.036775284 0.3191583 -0.42256525 -0.008943878 -0.21717827 0.23693556 -0.05287345 0.32943618 -0.042652838 -0.16574554 0.09839777 0.101554245 -0.002167694 0.114905395 -0.034490258 0.11521201 0.20545919 0.2104618 0.15371123 -0.19440955 -0.12302251 -0.016282754 -0.270874 -0.03481859 -0.11495174 -0.05642578 0.032514103 -0.049607933 -0.24236003 -0.06399283 0.1354446 -0.40576464 -0.14463864 0.25754896 -0.1381773 0.096253395 0.34734067 -0.17227772 0.054699056 0.1791069 0.27622923 -0.029071938 0.08573391 0.03345014 -0.14766243 -0.1712711 -0.066045955 -0.043165717 0.39378318 0.22897454 -0.38301533 0.21679796 0.024565019 0.3935558 0.25983366 -0.08844315 -0.2925632 -0.05255967 0.22264256 0.26166224 0.117216446 -0.3798109 -0.1484979 -0.3728999 -0.023342665 -0.18877676 -0.13878311 0.09992631 -0.060651537 0.012367235 -0.15929843 -0.10883093 -0.1434052 0.016148154 0.21510261 0.24823259 -0.055164285 0.25346324 -0.052546814 -0.08735277 -0.020066597 0.04026449 0.015224757 0.23398215 -0.20626874 0.17077383 -0.07587696 -0.09500891 -0.0011142369 0.04646179 -0.24240567 -0.13331804 -0.10947525 -0.40326986
http://www.meteck.org/teaching/OEbook/ontologies/AfricanWildlifeOntology4.owl#Role 0.078521736 -0.047758427 0.14597227 0.098891795 -0.2991339 0.18244208 0.036584977 0.27780262 -0.3544401 -0.044096272 -0.17215483 0.22061369 -0.029041898 0.29917923 -0.064407505 -0.14898342 0.10445778 0.005966346 0.035633802 0.10891369 0.039652135 0.07358616 0.16883628 0.21745202 0.17717561 -0.16052586 -0.09388139 -0.057089303 -0.22197992 -0.030877823 -0.10164803 -0.02081165 0.08675366 0.019907968 -0.21061544 -0.09579925 0.12047304 -0.34601083 -0.21738754 0.15373544 -0.0925902 0.09094304 0.25533563 -0.21933635 0.05064492 0.14528911 0.2170549 -0.05675568 0.09216527 0.017543253 -0.10006595 -0.17198825 -0.0628607 -0.07956207 0.3294914 0.20977822 -0.31233835 0.20896131 0.032630116 0.38773704 0.17910647 -0.055103593 -0.26722896 -0.030418707 0.18142852 0.19023019 0.06374813 -0.3770963 -0.15851276 -0.33533466 -0.013500186 -0.17207128 -0.11868468 0.09708516 -0.061997004 0.03933104 -0.09483821 -0.15044062 -0.12563 0.042797558 0.13231921 0.20215973 -0.12678905 0.20809065 -0.11885174 -0.0455298 -0.017453056 -0.021507015 0.05583766 0.26037458 -0.23459056 0.15422562 -0.069274396 -0.11654439 0.019963684 -0.028710062 -0.20403177 -0.14729345 -0.05834801 -0.36112463
leaf 0.09638405 -0.053568974 0.16070369 0.1107183 -0.3138563 0.16611284 0.040776737 0.29269874 -0.35912538 -0.035799604 -0.19245109 0.21709383 -0.034024496 0.3118093 -0.06631375 -0.16145009 0.10196421 0.024026684 0.024597527 0.12086993 0.038582023 0.08217545 0.16384387 0.2140783 0.15944386 -0.17089269 -0.08775083 -0.054058995 -0.23288973 -0.02024511 -0.09749271 -0.04363852 0.06855585 0.003325394 -0.21624303 -0.07230326 0.11500811 -0.3715846 -0.20123659 0.17136334 -0.09104046 0.08653176 0.2714775 -0.20638132 0.05756081 0.15059586 0.23540053 -0.052504484 0.09123258 0.0065035275 -0.10719924 -0.16597895 -0.047372866 -0.06763475 0.32997975 0.20171286 -0.33357343 0.20581813 0.043610428 0.40554115 0.19388379 -0.07274196 -0.2679116 -0.047694065 0.1865352 0.2054459 0.0691363 -0.38765794 -0.15528303 -0.3445747 -0.020632556 -0.18173537 -0.11057567 0.09431191 -0.08253236 0.03060852 -0.10185447 -0.13303798 -0.13466725 0.041525047 0.1674919 0.1906328 -0.1143768 0.22456595 -0.10117344 -0.07080989 -0.012872052 -0.015702581 0.060914196 0.24552815 -0.22056253 0.16708021 -0.08690142 -0.124145195 0.020067394 -0.0149726635 -0.21399532 -0.14565423 -0.064675845 -0.3867072
role 0.10798484 -0.070471115 0.15695222 0.113231115 -0.3193319 0.19170666 0.028795557 0.28636244 -0.37273008 -0.03825133 -0.19991946 0.2362888 -0.017226417 0.33844182 -0.064853124 -0.15842311 0.11702747 0.02260231 0.035100818 0.12534994 0.047762565 0.07644031 0.18378729 0.24858485 0.18695225 -0.18055041 -0.104708634 -0.055771463 -0.24705571 -0.042873748 -0.11453594 -0.021022158 0.095165566 0.009586927 -0.2434938 -0.08537742 0.11796141 -0.37415582 -0.22228183 0.18027474 -0.10143243 0.08787428 0.2748295 -0.2337112 0.054226734 0.1752455 0.22615577 -0.06796687 0.100304686 0.024459673 -0.09890979 -0.19487214 -0.05055445 -0.07858405 0.35867393 0.22290497 -0.3527859 0.21839401 0.047280945 0.4170139 0.19475374 -0.07452745 -0.29128087 -0.053133447 0.19779786 0.22083198 0.0753391 -0.414611 -0.18246566 -0.37151107 -0.010472842 -0.18700242 -0.13116363 0.12000978 -0.070672266 0.038451817 -0.097185954 -0.14728728 -0.13868938 0.035128914 0.1516134 0.2179164 -0.12951991 0.2203686 -0.11738139 -0.05410473 -0.018655661 -0.028928949 0.069301054 0.283432 -0.2558203 0.17417474 -0.084149204 -0.12738533 0.028275006 -0.02138372 -0.23370132 -0.15774201 -0.064731464 -0.39571494
buffalo 0.09326161 -0.04841521 0.1480975 0.10757389 -0.30682972 0.16371246 0.037896458 0.28451335 -0.35550883 -0.0504681 -0.19386423 0.21741381 -0.02451745 0.312693 -0.056759186 -0.15335786 0.11118617 0.01623484 0.04022041 0.11224988 0.032311525 0.06375457 0.16190252 0.23267838 0.16273724 -0.1654038 -0.10238651 -0.053855587 -0.2202186 -0.044405915 -0.10650046 -0.029902302 0.08824414 -0.0028670705 -0.21147864 -0.083889395 0.1150997 -0.36784327 -0.22082765 0.1727187 -0.090984605 0.08011596 0.2729629 -0.2213769 0.055826575 0.14843972 0.23470683 -0.04565827 0.10848249 0.026953874 -0.087977886 -0.17489727 -0.06602449 -0.07605598 0.335115 0.20356894 -0.31550223 0.21458328 0.046519987 0.40543208 0.17702521 -0.0709866 -0.27356434 -0.04253694 0.19845182 0.20686662 0.076508686 -0.38166547 -0.15909407 -0.3404576 -0.021729587 -0.17801027 -0.105961956 0.1112402 -0.07334052 0.027621109 -0.09725228 -0.15014783 -0.13192476 0.032455478 0.14324918 0.20502141 -0.12573518 0.21695232 -0.10846948 -0.05968034 -0.006725098 -0.042858623 0.060830664 0.25070402 -0.23113082 0.1662758 -0.07309753 -0.13319544 0.020264864 -0.022418823 -0.22606951 -0.14305858 -0.06519972 -0.38751855
http://www.meteck.org/teaching/OEbook/ontologies/AfricanWildlifeOntology1.owl#Warthog 0.09850759 -0.064004995 0.1511686 0.09552907 -0.2989167 0.18121062 0.03739052 0.2661011 -0.34111625 -0.03724854 -0.18700019 0.21990155 -0.025584204 0.3036858 -0.051320642 -0.15348181 0.09693207 0.028754132 0.014056039 0.114616536 0.05305079 0.06347556 0.16484176 0.21819007 0.15814309 -0.15925412 -0.09199091 -0.055052847 -0.20959613 -0.03687988 -0.09139741 -0.032497022 0.09347689 0.0048993845 -0.20423846 -0.086480305 0.11275459 -0.33774996 -0.21669725 0.14303166 -0.08247781 0.0897615 0.26738384 -0.21786639 0.042151716 0.1382341 0.21802399 -0.0629558 0.110415794 0.0030278196 -0.08323965 -0.17725138 -0.06020899 -0.08620566 0.3161245 0.19821799 -0.31999743 0.20196967 0.045407265 0.3749799 0.1679777 -0.071587175 -0.27476764 -0.048992537 0.18116419 0.19909595 0.06900733 -0.3809128 -0.15967202 -0.32340637 -0.02897997 -0.18217415 -0.1136557 0.089864165 -0.07203578 0.042587522 -0.09159167 -0.15229814 -0.11992874 0.034321867 0.13024805 0.1775213 -0.11023554 0.22111244 -0.105558686 -0.055340085 -0.009220103 -0.03365526 0.05179036 0.26153433 -0.2160362 0.15101944 -0.07731414 -0.11008162 0.016761197 -0.020860992 -0.20125356 -0.13893801 -0.06740616 -0.3741805
are 0.08841752 -0.07014394 0.17163444 0.13421457 -0.34889778 0.19029152 0.04602878 0.32733122 -0.38702208 -0.060442936 -0.20729926 0.24353999 -0.0388682 0.35775003 -0.07750189 -0.18180501 0.12476625 0.03130916 0.03379518 0.13885286 0.06222549 0.07747687 0.1963909 0.24350873 0.18923329 -0.17685334 -0.11624496 -0.04389449 -0.25239548 -0.04487581 -0.13139819 -0.044677254 0.114068404 0.0030639546 -0.24910511 -0.08252686 0.14404248 -0.4132039 -0.24523304 0.17283334 -0.09525869 0.12032158 0.28113195 -0.26622018 0.07959079 0.16640371 0.23447436 -0.06452448 0.11661823 0.0031844599 -0.1176431 -0.19974932 -0.05846982 -0.08585756 0.37142575 0.24225181 -0.36009848 0.22278847 0.04998641 0.45915455 0.19273956 -0.066833474 -0.31387293 -0.05746253 0.22729361 0.23073217 0.09041527 -0.42740032 -0.17393607 -0.37549686 -0.018599682 -0.20526683 -0.12478481 0.113733344 -0.078124285 0.029983593 -0.07503766 -0.17099969 -0.13618973 0.027802553 0.14881103 0.22441919 -0.13075007 0.23388956 -0.13838385 -0.057425838 0.014742712 -0.058062855 0.066393174 0.28065482 -0.25855067 0.18882006 -0.10216909 -0.150826 0.022000214 -0.011813288 -0.2658746 -0.16788718 -0.06982035 -0.411036
branch 0.10014453 -0.06959246 0.1515782 0.1175241 -0.31778997 0.16174278 0.03874208 0.3004656 -0.36358693 -0.04095977 -0.19533384 0.21761514 -0.028548926 0.3026621 -0.06358317 -0.16628435 0.10144322 0.024756037 0.027085222 0.12902349 0.02502153 0.079784915 0.17921458 0.23272505 0.17725489 -0.17633834 -0.094351225 -0.044811193 -0.23664743 -0.034126073 -0.098904684 -0.036838893 0.069099426 -0.003066827 -0.21442914 -0.08834211 0.11466218 -0.3716563 -0.19401306 0.1700584 -0.099210836 0.088937886 0.264486 -0.21377788 0.057042055 0.14848644 0.22714877 -0.04252677 0.107052274 0.015153552 -0.10697192 -0.16837732 -0.06063016 -0.068909876 0.34448066 0.21750973 -0.34060857 0.21855697 0.04357179 0.4118643 0.18495966 -0.062361002 -0.2743661 -0.04582893 0.20394982 0.20307669 0.08799083 -0.38800144 -0.16660109 -0.35755795 -0.019588128 -0.19124898 -0.11975387 0.09389636 -0.062188078 0.030801939 -0.090027414 -0.14545424 -0.13504867 0.041152716 0.16248363 0.21216583 -0.102453545 0.22962838 -0.1100634 -0.0689318 -0.00020463837 -0.021210108 0.059564564 0.25369692 -0.234351 0.16561866 -0.07325354 -0.11812564 0.0073570004 -0.013384325 -0.21834423 -0.13634466 -0.07319804 -0.39316636
http://www.meteck.org/teaching/OEbook/ontologies/AfricanWildlifeOntology1.owl#Giraffe 0.09318248 -0.049744062 0.15532862 0.09848949 -0.28802687 0.16053982 0.033635024 0.27113554 -0.34414512 -0.051800974 -0.1813953 0.21059513 -0.020843336 0.2967958 -0.060412973 -0.15704623 0.09944226 0.011505086 0.031898387 0.118025295 0.036948703 0.059944607 0.1552868 0.21977727 0.15952627 -0.14928925 -0.092191346 -0.039902814 -0.20633069 -0.036774144 -0.08969516 -0.020552574 0.09075627 0.016653033 -0.20988837 -0.090969235 0.114933014 -0.34399986 -0.20631185 0.14385307 -0.08930899 0.08193578 0.24568328 -0.2063233 0.058557067 0.14536965 0.20810187 -0.052746173 0.08869137 0.00898668 -0.09396613 -0.17571072 -0.0545323 -0.08263708 0.32559547 0.20244546 -0.31905276 0.19825673 0.044162706 0.37430155 0.17346004 -0.053976055 -0.2660745 -0.04819057 0.17978677 0.18931207 0.070089504 -0.373843 -0.16295986 -0.3071364 -0.02755817 -0.16689545 -0.104584716 0.10161599 -0.06019838 0.02252684 -0.08976804 -0.14409228 -0.11974734 0.041366156 0.14338616 0.18009456 -0.12195802 0.214598 -0.101809986 -0.049903054 -0.010343555 -0.036284685 0.049988773 0.24594451 -0.22455682 0.16818981 -0.081419945 -0.121186346 0.013991912 -0.012170489 -0.20417796 -0.13378933 -0.060048353 -0.36766398
habitat 0.09517305 -0.06532886 0.17814766 0.10769604 -0.3326261 0.20386198 0.034027666 0.3222222 -0.3910932 -0.05064937 -0.20030439 0.23576401 -0.03210507 0.34914547 -0.08314783 -0.18487747 0.13792022 0.015285256 0.035761427 0.13323297 0.049102645 0.074887805 0.19964762 0.25571075 0.1847367 -0.18270157 -0.11945282 -0.04575368 -0.24978615 -0.0404025 -0.13646576 -0.03263068 0.10925095 0.015526687 -0.24494308 -0.10525954 0.1226759 -0.3945592 -0.25421256 0.17155553 -0.1094205 0.08819072 0.28427246 -0.24641515 0.056034226 0.18466444 0.25292578 -0.064614475 0.103916444 0.027400147 -0.120546736 -0.1945378 -0.050193496 -0.0926166 0.36284193 0.24142331 -0.37639925 0.23258907 0.062792785 0.44784924 0.19569807 -0.075675875 -0.32475546 -0.05593734 0.21447517 0.23433912 0.08214625 -0.4333175 -0.18082753 -0.37830922 -0.02409551 -0.20963079 -0.12676527 0.11721578 -0.083636746 0.043037698 -0.09061979 -0.16445951 -0.13789222 0.051705915 0.15493998 0.225349 -0.14883524 0.25280407 -0.13198331 -0.055913016 -0.0036023855 -0.036817316 0.05710742 0.29475692 -0.25450453 0.17768115 -0.09630538 -0.15091914 0.018382821 -0.024835013 -0.25584823 -0.18392643 -0.08501818 -0.43685594
herd 0.102704264 -0.052985005 0.1605419 0.10005464 -0.32626575 0.19461766 0.045813926 0.30170116 -0.37507835 -0.048342135 -0.20220625 0.22950342 -0.028641155 0.3220951 -0.063977376 -0.16122371 0.11575836 0.01324846 0.022439234 0.13533717 0.048086848 0.0672478 0.17986523 0.22754753 0.17608668 -0.16503568 -0.10014935 -0.049897257 -0.23975766 -0.03268669 -0.11280558 -0.02848871 0.084450915 0.006339745 -0.22261852 -0.08527919 0.13291742 -0.38743362 -0.2167107 0.15858762 -0.08937592 0.08651229 0.2833489 -0.24370298 0.07099987 0.15619469 0.24211241 -0.058910705 0.09862762 0.009792267 -0.09504898 -0.19650911 -0.06070305 -0.08096659 0.34661505 0.21124779 -0.33667907 0.2251589 0.051819988 0.43122247 0.17678499 -0.06407194 -0.30103296 -0.03474057 0.2074269 0.2050816 0.08292258 -0.42193455 -0.17405532 -0.35206285 -0.024605896 -0.18363921 -0.12165313 0.11747941 -0.07823521 0.022879496 -0.100997984 -0.14895561 -0.14429766 0.038629204 0.13928841 0.19854623 -0.12726846 0.22152342 -0.11994634 -0.047820322 -0.019164063 -0.05115165 0.059057523 0.278427 -0.24364582 0.17414439 -0.095653 -0.12605122 0.009120203 -0.012192654 -0.24406303 -0.15302542 -0.077221856 -0.4094561
elephant 0.096714236 -0.07022751 0.15782242 0.11066031 -0.32092705 0.17351185 0.046720475 0.2821393 -0.37153247 -0.05225425 -0.1962489 0.2231268 -0.03873861 0.31555718 -0.055563647 -0.17289019 0.11849725 0.03926374 0.02823419 0.115970105 0.047401935 0.08574324 0.16532831 0.23419309 0.18218823 -0.17853379 -0.11371407 -0.04334948 -0.23544165 -0.029482955 -0.11478581 -0.026469471 0.08208265 -0.0061112586 -0.23092325 -0.09291094 0.12629272 -0.38773048 -0.20946306 0.17211035 -0.10055582 0.10089365 0.28380093 -0.22789662 0.054481532 0.16320468 0.23882276 -0.04769744 0.10178058 0.022186752 -0.1047633 -0.19798158 -0.06874836 -0.06832211 0.35716894 0.21285588 -0.3285949 0.20379901 0.033894446 0.41139403 0.19306774 -0.054269534 -0.28372437 -0.047402874 0.2109796 0.2147737 0.09293135 -0.40831128 -0.17666864 -0.35960665 -0.010712411 -0.19423857 -0.111267686 0.11625727 -0.08687413 0.038789444 -0.10914299 -0.15595682 -0.13487424 0.038589787 0.14869471 0.19390617 -0.11867712 0.2155661 -0.118808 -0.05989682 -0.013653778 -0.031653386 0.051042918 0.2656275 -0.22958194 0.16704503 -0.08663174 -0.13026923 0.016928526 -0.019319613 -0.22687387 -0.16172774 -0.07303163 -0.3899224
http://www.meteck.org/teaching/OEbook/ontologies/AfricanWildlifeOntology4.owl#Cloud 0.08527813 -0.05009043 0.14286104 0.10403225 -0.27355608 0.174211 0.04260226 0.264309 -0.32557026 -0.0347706 -0.16449936 0.19614327 -0.03491148 0.27523488 -0.06625296 -0.1538208 0.09604708 0.008229803 0.036983237 0.10323074 0.048170254 0.058116574 0.14991575 0.21251073 0.16795042 -0.14218241 -0.07817501 -0.042833854 -0.19792503 -0.036389943 -0.09253191 -0.021898719 0.076825015 0.007376513 -0.20046382 -0.08873942 0.11674648 -0.33867303 -0.2110939 0.1406883 -0.07513229 0.07675901 0.24147435 -0.2033091 0.046181418 0.14802127 0.20362702 -0.047952913 0.08874857 0.0056636995 -0.08276379 -0.1583864 -0.038455278 -0.07098537 0.30653772 0.18776783 -0.30669224 0.19539042 0.039218117 0.37242562 0.1592846 -0.059907313 -0.2659414 -0.04560096 0.17238478 0.18940963 0.06610904 -0.3709957 -0.15176648 -0.32014427 -0.031355135 -0.17513658 -0.109333895 0.1072059 -0.07258872 0.027932538 -0.0860045 -0.13935904 -0.11447477 0.032589715 0.13572533 0.18859054 -0.10600897 0.20395963 -0.09896696 -0.044339214 -0.003312102 -0.039420065 0.046250623 0.23106532 -0.20464876 0.15540512 -0.07815786 -0.11989804 0.013435366 -0.008511243 -0.20492926 -0.13189326 -0.068785466 -0.35496092
http://www.meteck.org/teaching/OEbook/ontologies/AfricanWildlifeOntology1.owl#Elephant 0.08841367 -0.04773806 0.15589367 0.10182164 -0.3006903 0.16269603 0.04890318 0.27212054 -0.34140256 -0.050616857 -0.18991639 0.21797504 -0.033763185 0.29667994 -0.05468192 -0.15825053 0.10037225 0.029110543 0.019467393 0.105403125 0.028368376 0.05990982 0.15676929 0.21822768 0.15942344 -0.16895577 -0.10662501 -0.042826094 -0.20493555 -0.03794327 -0.10755332 -0.03119308 0.08781151 -0.0037973537 -0.20084336 -0.079256706 0.11398676 -0.3435864 -0.20924921 0.15040374 -0.08298112 0.095025875 0.25578701 -0.21347828 0.048727494 0.15460555 0.22577338 -0.052961927 0.09800006 0.018906653 -0.09528583 -0.16749722 -0.06139972 -0.07845138 0.3284014 0.2029873 -0.3230022 0.19560523 0.050799955 0.37789658 0.18275672 -0.05902339 -0.27108487 -0.050268196 0.1786377 0.19884518 0.06969332 -0.38538775 -0.16695358 -0.33151284 -0.012113742 -0.17157544 -0.1237973 0.10770431 -0.07843963 0.031776175 -0.10266123 -0.14932247 -0.13395128 0.038108487 0.14102177 0.18684728 -0.11365067 0.21572503 -0.10184422 -0.055529576 -0.008858776 -0.035868056 0.044659775 0.24630363 -0.23276314 0.17105588 -0.07941953 -0.118507944 0.025713373 -0.01149798 -0.20578623 -0.14595614 -0.07671586 -0.38279432
carnivorous 0.08773185 -0.053207964 0.16455606 0.10637819 -0.32317343 0.18116468 0.047823735 0.31116688 -0.38462135 -0.045063224 -0.20093483 0.21629566 -0.018015675 0.31725818 -0.07328747 -0.17672929 0.11670336 0.028803285 0.02979656 0.1168871 0.039407432 0.07944154 0.18603976 0.2463833 0.18110219 -0.16832794 -0.095834225 -0.044718508 -0.23319471 -0.0395073 -0.11612164 -0.04403608 0.0867937 0.011666902 -0.2212911 -0.09606359 0.117220126 -0.38927087 -0.21951805 0.16257389 -0.103829555 0.08473595 0.2844304 -0.2388217 0.071328275 0.17322555 0.22815959 -0.05574008 0.104437 0.018573198 -0.10957783 -0.18240564 -0.043364726 -0.08489726 0.34343794 0.23231912 -0.33236519 0.21734703 0.05051462 0.4203956 0.18134806 -0.056479335 -0.29551703 -0.051618636 0.20858762 0.20453483 0.07391371 -0.4165078 -0.17486882 -0.3659293 -0.029503932 -0.19598587 -0.12817042 0.11613615 -0.075885974 0.04772894 -0.08548444 -0.16018042 -0.12637891 0.040854726 0.14935459 0.19916382 -0.124789156 0.23767057 -0.11973888 -0.06916506 -0.012230459 -0.048233103 0.06654444 0.2721252 -0.2421935 0.18015225 -0.07583748 -0.12599064 0.01204884 -0.013196956 -0.22567835 -0.15781927 -0.078609034 -0.4031936
( 0.11425574 -0.086266376 0.17825279 0.10373636 -0.3336079 0.18717074 0.03072007 0.3242083 -0.40305898 -0.056608744 -0.22904834 0.23582277 -0.023361498 0.3604603 -0.070040576 -0.17717996 0.1423391 0.027880162 0.032067567 0.13887386 0.074427076 0.06904701 0.19250518 0.2590871 0.19918472 -0.1673757 -0.10703513 -0.04467237 -0.2636502 -0.04880413 -0.12874317 -0.038120233 0.110110916 0.023512699 -0.25635138 -0.08546608 0.13627066 -0.41748264 -0.25380144 0.16496016 -0.12198022 0.12151422 0.28859988 -0.27467 0.081098266 0.20171924 0.23142503 -0.08628281 0.11643659 0.017706452 -0.10392371 -0.21864468 -0.041465323 -0.102755316 0.38774893 0.25695556 -0.3746512 0.23102239 0.052133232 0.47621214 0.1960926 -0.07388245 -0.34032658 -0.046227667 0.22474085 0.24577487 0.089860275 -0.44799352 -0.19979367 -0.4057293 -0.024975196 -0.20821397 -0.1306467 0.13142754 -0.075252645 0.0627101 -0.08990279 -0.17743514 -0.15492775 0.02115285 0.16847806 0.20555627 -0.14418139 0.26035246 -0.14200151 -0.04955561 0.008457292 -0.07293725 0.061431054 0.30933887 -0.26966435 0.20457768 -0.078001305 -0.15794295 0.0274648 -0.038324974 -0.27543545 -0.18867478 -0.07087083 -0.42986134
a 0.10719999 -0.08766501 0.17799613 0.13063353 -0.34885263 0.20474245 0.04956669 0.3264569 -0.40747595 -0.051069614 -0.2045662 0.24246131 -0.03167877 0.35105747 -0.084007494 -0.17974225 0.14247024 0.019660179 0.045424957 0.13320185 0.06654449 0.07860392 0.20621838 0.25000498 0.1963509 -0.17439453 -0.11287475 -0.065362304 -0.24702804 -0.047538053 -0.12278314 -0.03899981 0.10364469 0.018870696 -0.25681314 -0.08712167 0.1396311 -0.41815528 -0.26216623 0.17879792 -0.1105097 0.11970796 0.28429386 -0.2620268 0.061807096 0.17986521 0.23500274 -0.07067716 0.112321004 0.008012833 -0.115617186 -0.20464015 -0.048304997 -0.1016598 0.3862432 0.2507547 -0.363701 0.24182607 0.05311365 0.4672607 0.20400277 -0.0692554 -0.33136263 -0.045067802 0.22863457 0.24649665 0.084737584 -0.45137504 -0.18327127 -0.4006663 -0.034818996 -0.20716576 -0.12081203 0.11528602 -0.08541547 0.035288867 -0.08972016 -0.17956442 -0.14133015 0.041722152 0.15292108 0.21223609 -0.13971609 0.23785968 -0.1433057 -0.078711085 0.010614177 -0.057020586 0.05429429 0.30628517 -0.27918938 0.19256184 -0.10462212 -0.14247212 0.024990477 -0.015105689 -0.26962867 -0.18574585 -0.06707959 -0.42072296
stem 0.08377759 -0.061929937 0.17521887 0.11551465 -0.32188857 0.1636361 0.03011741 0.2913095 -0.3926834 -0.029625 -0.1929696 0.23647219 -0.03881048 0.33346355 -0.071841516 -0.15316297 0.100067206 0.023329452 0.019713992 0.13404623 0.030063083 0.07376178 0.18545717 0.24163918 0.17516607 -0.18595806 -0.10980795 -0.052377876 -0.23370953 -0.027069211 -0.12229835 -0.033248708 0.067619555 0.0057490338 -0.23640302 -0.09366028 0.12762539 -0.39577234 -0.21071218 0.19161846 -0.09514371 0.09259981 0.28284952 -0.22873646 0.06953981 0.16766351 0.24054879 -0.06029907 0.09687056 0.020179195 -0.10406341 -0.18614066 -0.048643496 -0.071259014 0.3558251 0.23290052 -0.3566906 0.23232977 0.039268125 0.42437902 0.19901392 -0.06896006 -0.29989314 -0.039168563 0.19974557 0.22940814 0.09589714 -0.40671068 -0.16968131 -0.3617331 -0.027174085 -0.18713091 -0.13302445 0.11110181 -0.07553352 0.041485816 -0.093931966 -0.1518667 -0.13036346 0.03631536 0.15985309 0.21712 -0.1067772 0.22107677 -0.096280575 -0.05725912 -0.006352336 -0.020860719 0.054184306 0.25961033 -0.23486757 0.1799107 -0.087775186 -0.12157748 0.01646985 -0.002088717 -0.2394429 -0.15698558 -0.08434506 -0.39584288
http://www.meteck.org/teaching/OEbook/ontologies/AfricanWildlifeOntology4.owl#Herd 0.09744576 -0.060392983 0.16193964 0.09901915 -0.29203284 0.1593006 0.04215484 0.27204055 -0.3264824 -0.03788684 -0.18793263 0.20577951 -0.020356372 0.29519552 -0.06339102 -0.14310467 0.10607261 0.021962803 0.026579633 0.10834322 0.04618047 0.0741707 0.1623457 0.21803066 0.15527058 -0.14315386 -0.09649188 -0.034016497 -0.20829016 -0.022137681 -0.0934859 -0.020774428 0.09415767 0.011837923 -0.2004076 -0.090156734 0.106424525 -0.3428225 -0.20076881 0.15451656 -0.08473344 0.08540275 0.2508667 -0.20809816 0.06405612 0.13954997 0.21782883 -0.055553637 0.10480291 0.011708089 -0.082838394 -0.17160708 -0.047618106 -0.08536187 0.32672724 0.19182286 -0.3138195 0.20494457 0.052421924 0.3815956 0.17181332 -0.06988465 -0.25748077 -0.048653666 0.17420636 0.19455278 0.06243194 -0.3795407 -0.15506802 -0.31782487 -0.025934437 -0.16757603 -0.109052956 0.09578708 -0.0631617 0.034464642 -0.07882611 -0.14806747 -0.12854984 0.033766758 0.13299394 0.19286984 -0.11350948 0.2086757 -0.106007084 -0.048343908 -0.012134475 -0.042710632 0.045617834 0.240346 -0.21741538 0.15825295 -0.076227926 -0.1213694 0.028165957 -0.0038875474 -0.21790303 -0.15119053 -0.0721465 -0.35704333
http://www.meteck.org/teaching/OEbook/ontologies/AfricanWildlifeOntology1.owl#Branch 0.09196348 -0.052318826 0.15934852 0.10263013 -0.30178684 0.16686517 0.031769894 0.27544153 -0.3500793 -0.0470513 -0.19266884 0.21703291 -0.017585773 0.30502316 -0.06241251 -0.14526168 0.10671113 0.024602726 0.02574478 0.11642851 0.04262002 0.072058894 0.16790055 0.21950428 0.15715885 -0.15073454 -0.08812562 -0.051010624 -0.21737583 -0.021860994 -0.10738301 -0.021153972 0.092105545 0.014448782 -0.22180754 -0.08558961 0.11784644 -0.34447402 -0.21294174 0.15081136 -0.09593847 0.09210452 0.26668206 -0.22413692 0.05313407 0.14781868 0.230327 -0.05876643 0.092568584 0.009372015 -0.09539853 -0.17584859 -0.06029263 -0.07179776 0.3239272 0.19824854 -0.31297162 0.20697007 0.03596559 0.38210788 0.1694205 -0.056873877 -0.2678921 -0.033945158 0.1913695 0.2001145 0.07716087 -0.37389344 -0.16387445 -0.31950504 -0.014383653 -0.17125396 -0.10496897 0.10162978 -0.07858675 0.03413874 -0.08427104 -0.13548096 -0.12762542 0.03497393 0.1391354 0.19663501 -0.12824297 0.20772788 -0.11389152 -0.05179649 -0.008786205 -0.043822054 0.047630455 0.23762693 -0.22461584 0.17196046 -0.07674225 -0.115658715 0.020928167 -0.007303902 -0.21796094 -0.13658494 -0.072631374 -0.37441897
http://www.meteck.org/teaching/OEbook/ontologies/AfricanWildlifeOntology4.owl#impala1 0.09592214 -0.06753742 0.15574545 0.09641466 -0.31789875 0.18116944 0.057790063 0.27753904 -0.3598626 -0.036739785 -0.18519327 0.20795594 -0.02844103 0.3071923 -0.07519564 -0.16610795 0.11686467 0.015620419 0.024848016 0.11363652 0.044833567 0.070939004 0.16880412 0.22279271 0.17618941 -0.15816401 -0.1097804 -0.039353207 -0.20540635 -0.029321786 -0.10111344 -0.02418872 0.08686803 0.00790582 -0.22265448 -0.0928275 0.1296284 -0.36972225 -0.22790991 0.17202142 -0.090860374 0.09558767 0.25771242 -0.23528701 0.06851911 0.15424956 0.21995619 -0.054065708 0.10435879 0.019496702 -0.102248035 -0.18381993 -0.050737742 -0.07090893 0.32807133 0.21686372 -0.3194196 0.21270198 0.033637617 0.39893293 0.17708959 -0.07536962 -0.2777558 -0.027365647 0.19768557 0.21286106 0.085932285 -0.39908844 -0.17035197 -0.3389466 -0.028090976 -0.19967894 -0.11730049 0.117344454 -0.08695933 0.028719483 -0.09404999 -0.13909554 -0.13265696 0.04076369 0.14648008 0.18533336 -0.12345692 0.21055228 -0.122133784 -0.05028737 -0.004512043 -0.04830063 0.06139131 0.24737275 -0.22997516 0.17542437 -0.08643559 -0.13670923 0.010257101 -0.020448705 -0.23666929 -0.16663021 -0.07400439 -0.37790084
http://www.meteck.org/teaching/OEbook/ontologies/AfricanWildlifeOntology4.owl#MesoCarnivore 0.09013244 -0.063319154 0.15547903 0.085271135 -0.26890722 0.16020298 0.03990114 0.25092566 -0.31635416 -0.046333563 -0.16517477 0.18541558 -0.023756506 0.27506685 -0.052797936 -0.14343117 0.10583566 0.025632309 0.025714515 0.10083893 0.036814492 0.054120064 0.16285881 0.21550205 0.15680824 -0.13773432 -0.09300269 -0.038132664 -0.2013361 -0.036537983 -0.10351762 -0.025622992 0.07890258 0.0043360326 -0.20315997 -0.09008124 0.11942111 -0.33143693 -0.21038572 0.14388025 -0.07490528 0.07879381 0.24071011 -0.20445423 0.060178574 0.1367382 0.19781497 -0.05635391 0.10448999 0.016526625 -0.081479885 -0.15446763 -0.050899334 -0.08095154 0.31291828 0.19036907 -0.30227697 0.18355568 0.051766127 0.35721803 0.15623929 -0.053843897 -0.26873493 -0.043298926 0.18673319 0.18551424 0.07341696 -0.35980183 -0.16205995 -0.31554893 -0.017009892 -0.17646287 -0.10666534 0.09510439 -0.068220824 0.041760907 -0.076309554 -0.13159123 -0.12014185 0.033304572 0.13530485 0.16767457 -0.12139526 0.20056702 -0.09998704 -0.062274985 -0.0019772109 -0.036142208 0.044530917 0.24294306 -0.20260829 0.15148437 -0.07578562 -0.121723995 0.020843977 -0.026535518 -0.20354854 -0.14839019 -0.074013755 -0.3517995
) 0.11304324 -0.06771417 0.17375723 0.115386516 -0.35654518 0.20810279 0.05686695 0.3366034 -0.4091232 -0.06543722 -0.23550801 0.23819043 -0.024632912 0.3606079 -0.08631883 -0.17637226 0.14678068 0.026803128 0.049546007 0.14499325 0.06591628 0.08497251 0.19537991 0.27182958 0.21705195 -0.16833149 -0.11620298 -0.043843515 -0.25034767 -0.035297062 -0.124872304 -0.026844205 0.10589103 0.02053423 -0.26000425 -0.08749509 0.14904496 -0.41101095 -0.25294885 0.17405444 -0.11936553 0.1157212 0.30005273 -0.26685032 0.080855854 0.20058277 0.24615495 -0.07666865 0.12485208 0.02329734 -0.10694261 -0.20861745 -0.0420472 -0.08318475 0.3967953 0.2470748 -0.38227782 0.24280569 0.045179714 0.4829176 0.21235326 -0.059921585 -0.34452334 -0.043796506 0.22727497 0.24669176 0.092015654 -0.45749027 -0.1893107 -0.41242024 -0.020109579 -0.20609546 -0.14790109 0.12547036 -0.08823361 0.054712795 -0.08292792 -0.17006978 -0.14430672 0.031357612 0.16861923 0.21267378 -0.14261018 0.2524352 -0.1478757 -0.057993975 0.009428349 -0.056082297 0.055642344 0.29733604 -0.2902277 0.20477308 -0.09989617 -0.15758514 0.031638745 -0.014778935 -0.26342395 -0.19736381 -0.076276526 -0.45153123
http://www.meteck.org/teaching/OEbook/ontologies/AfricanWildlifeOntology1.owl#Tasty-plant 0.09953392 -0.0711851 0.1641022 0.10237302 -0.29884437 0.17537127 0.033280045 0.2855202 -0.35285476 -0.046093043 -0.18782118 0.21149243 -0.027647957 0.30607516 -0.06839752 -0.16073251 0.09886108 0.029052269 0.0250093 0.11152886 0.04012915 0.07808373 0.16527508 0.2207708 0.16959685 -0.17166829 -0.10140301 -0.05305717 -0.20978841 -0.041147336 -0.109382294 -0.022963762 0.09639668 0.006800189 -0.222213 -0.093310066 0.11528582 -0.35549334 -0.22205971 0.16068894 -0.089902036 0.09654994 0.25768915 -0.21760754 0.05622297 0.15756145 0.22816442 -0.05037261 0.100328945 0.0196972 -0.09919362 -0.17709918 -0.052239686 -0.07466253 0.33753628 0.19739436 -0.31563213 0.21395706 0.037820704 0.40985686 0.18474883 -0.07080045 -0.27734953 -0.032218672 0.18904248 0.21508832 0.07445685 -0.39480567 -0.16739154 -0.33802113 -0.018076375 -0.17496644 -0.121588245 0.11425828 -0.071097955 0.026012765 -0.08097119 -0.1494794 -0.12687637 0.047744926 0.13353038 0.18996605 -0.1212018 0.21453406 -0.12045314 -0.069465615 -0.004232896 -0.045306433 0.048089284 0.25879633 -0.23537174 0.16818719 -0.07719279 -0.12360321 0.018327862 -0.009917803 -0.21472353 -0.15273698 -0.08100643 -0.38746974
carnivores 0.078665204 -0.07848176 0.15129206 0.09287918 -0.3224381 0.17873862 0.041633 0.2803759 -0.36784938 -0.061698463 -0.1965039 0.21139471 -0.031450927 0.32003158 -0.05848741 -0.15701382 0.11677156 0.030270237 0.022647271 0.13703085 0.06308079 0.06786674 0.1817606 0.22126064 0.18924095 -0.16486041 -0.10692169 -0.06975823 -0.21638055 -0.029590825 -0.11588245 -0.039662253 0.1093882 0.0092690075 -0.23916915 -0.099222384 0.113160275 -0.3661777 -0.21713708 0.17216904 -0.088878706 0.09087301 0.26050076 -0.22952655 0.050296605 0.15191509 0.23595302 -0.071175374 0.105941735 0.022369493 -0.09848981 -0.17826931 -0.062966235 -0.09059257 0.3278775 0.20937784 -0.3221917 0.23141104 0.053421527 0.42219445 0.18355478 -0.06038995 -0.29141337 -0.03584454 0.2067088 0.2056379 0.08358872 -0.40550578 -0.17340326 -0.35223305 -0.03258429 -0.18865278 -0.115979075 0.115819514 -0.057074796 0.021591246 -0.083195046 -0.14063725 -0.13447954 0.03589508 0.14006354 0.20978986 -0.119629085 0.2250624 -0.109065056 -0.053198915 -0.020974388 -0.03594465 0.04677668 0.27943066 -0.21898896 0.16827607 -0.08802071 -0.12501165 0.02595249 -0.006241197 -0.23293075 -0.16177231 -0.08670728 -0.4013457
type 0.091967866 -0.06745634 0.16331661 0.1030022 -0.3007945 0.18334024 0.055775415 0.28246754 -0.3668995 -0.048331987 -0.19979778 0.21108246 -0.031816527 0.3262438 -0.07943665 -0.16580296 0.12087231 0.028035901 0.033253044 0.11064574 0.037867174 0.06756735 0.18168467 0.21888275 0.18690619 -0.15985675 -0.1136884 -0.05265649 -0.22547826 -0.019596213 -0.10259551 -0.036383156 0.08574088 0.010161686 -0.2337325 -0.08933633 0.1124161 -0.36833066 -0.22276503 0.16202216 -0.104262315 0.08981902 0.27259997 -0.24177286 0.05557195 0.14693628 0.23611537 -0.07203401 0.10957147 0.03083411 -0.096425705 -0.18649976 -0.06423707 -0.09284173 0.3312108 0.22779737 -0.3411732 0.19943735 0.0499571 0.41117337 0.18079764 -0.06106138 -0.29017037 -0.028560022 0.20092341 0.21881033 0.0894381 -0.404177 -0.17685525 -0.33904746 -0.030984992 -0.20588516 -0.119339265 0.12295975 -0.088471465 0.042658076 -0.0794393 -0.1364469 -0.1357368 0.032591034 0.14687487 0.18500245 -0.12099403 0.22589251 -0.11611481 -0.05620036 -0.0010550095 -0.043554667 0.075168125 0.27439114 -0.22542183 0.17571281 -0.07732069 -0.14154957 0.003119054 -0.02152599 -0.22701412 -0.1751725 -0.073651485 -0.4009353
http://www.meteck.org/teaching/OEbook/ontologies/AfricanWildlifeOntology4.owl#Shark 0.08604641 -0.06770366 0.15489987 0.10142768 -0.28117773 0.17079414 0.032425873 0.26651055 -0.34360778 -0.045909476 -0.17695932 0.20814484 -0.032585844 0.30039725 -0.062625624 -0.14015034 0.104928486 0.01996314 0.03039208 0.11912964 0.037260845 0.065025516 0.14676349 0.2120736 0.17056242 -0.1469365 -0.096546374 -0.049770903 -0.20788231 -0.031355977 -0.10861715 -0.033044286 0.08445724 0.008334496 -0.1949697 -0.08770641 0.10975656 -0.33822903 -0.19631186 0.14939868 -0.08707883 0.07594572 0.25380874 -0.2041919 0.048506998 0.14134984 0.21028608 -0.04129587 0.08615523 0.0045757643 -0.09586514 -0.16586065 -0.05974776 -0.07513328 0.32258108 0.20490646 -0.31456625 0.1907487 0.037130497 0.38868564 0.17492348 -0.05933923 -0.25732204 -0.036955666 0.17579103 0.19620551 0.07804759 -0.37772647 -0.15100151 -0.31901214 -0.028602203 -0.18036124 -0.111506715 0.09662814 -0.07188635 0.034573965 -0.08588486 -0.13744903 -0.11889599 0.029457333 0.13456051 0.17388654 -0.110073544 0.19886853 -0.09799444 -0.060428243 -0.0125417495 -0.03298727 0.060755726 0.23699586 -0.22222878 0.16341485 -0.07737153 -0.12580393 0.02325755 -0.024737572 -0.20296499 -0.13151368 -0.059054524 -0.3662815
twig 0.08466968 -0.06317349 0.15636596 0.11874333 -0.3040513 0.17788416 0.041438088 0.29016936 -0.37051278 -0.050049197 -0.19394772 0.22141139 -0.039176397 0.3157548 -0.07081196 -0.14629224 0.10818925 0.02181188 0.016875222 0.116505936 0.030552682 0.067059994 0.17191869 0.21301347 0.15873884 -0.16052751 -0.087893225 -0.05221281 -0.21484147 -0.031494286 -0.110880174 -0.04411886 0.07187609 0.0042628134 -0.21676983 -0.09399767 0.11185655 -0.3692661 -0.21040954 0.16277988 -0.08809088 0.09745017 0.26544636 -0.22376959 0.07464674 0.15651698 0.23453312 -0.059770193 0.0957432 0.0055849412 -0.09961797 -0.18050484 -0.045431018 -0.08356443 0.3423955 0.20376982 -0.3262555 0.21035445 0.05313778 0.40295497 0.18418309 -0.070559695 -0.2760237 -0.043922473 0.1842115 0.20760997 0.072267555 -0.39355657 -0.16934316 -0.34604633 -0.027533669 -0.1915777 -0.120290644 0.097075865 -0.08000547 0.029919619 -0.10545218 -0.12739015 -0.12776375 0.049750295 0.16453193 0.21111938 -0.110044576 0.21662603 -0.09842773 -0.07398694 0.0013301624 -0.02726158 0.043441296 0.24568187 -0.22948429 0.15254436 -0.07542681 -0.12844922 0.023943057 -0.01022701 -0.21665047 -0.14952834 -0.083714075 -0.38883257
den 0.087305926 -0.05088502 0.14267321 0.093259536 -0.27241752 0.17257208 0.03344613 0.25729755 -0.3330438 -0.044113424 -0.1689091 0.19544718 -0.034951974 0.28862044 -0.053788055 -0.15290433 0.10082868 0.009733001 0.022463225 0.11450109 0.039509043 0.05718949 0.16644502 0.2032624 0.15412562 -0.14331444 -0.088799365 -0.055196967 -0.20666409 -0.026478086 -0.104598045 -0.027822994 0.083449915 0.0031853237 -0.19738191 -0.081211716 0.11985778 -0.34753346 -0.20469952 0.15166737 -0.07464472 0.07521434 0.2532584 -0.21651791 0.054462772 0.13879204 0.20671138 -0.04271592 0.09928041 0.02037158 -0.09476884 -0.15757237 -0.05043853 -0.069222756 0.31516382 0.19815315 -0.30116704 0.19543047 0.045325015 0.38270676 0.16623344 -0.05804801 -0.2670568 -0.040058576 0.18705268 0.19263305 0.062861115 -0.3625321 -0.14370954 -0.323884 -0.027989017 -0.16966805 -0.10532483 0.09293577 -0.061977133 0.036955 -0.082520425 -0.1378249 -0.12859255 0.0424242 0.14334983 0.18076052 -0.116454475 0.20855676 -0.099130765 -0.06041668 -0.007128126 -0.025537053 0.061512846 0.24043629 -0.21131438 0.14837913 -0.07118294 -0.122377984 0.01428838 -0.01932184 -0.21169606 -0.14103132 -0.07378344 -0.35373175
animals 0.105380446 -0.060643613 0.17292137 0.12884067 -0.36510083 0.20142077 0.04394166 0.3322414 -0.40245628 -0.043995224 -0.2325461 0.25751913 -0.040592868 0.3550659 -0.08301761 -0.17059523 0.13155822 0.03167284 0.032791466 0.14502685 0.054821644 0.09264405 0.20465313 0.26254252 0.20850067 -0.18970916 -0.11840276 -0.038558498 -0.2654228 -0.054608688 -0.14827521 -0.030242555 0.11029378 0.001633545 -0.24963923 -0.0867301 0.15212452 -0.41026634 -0.23532632 0.17053863 -0.10677456 0.11266003 0.29381776 -0.2589711 0.07750688 0.18885614 0.26728612 -0.08132166 0.10951546 0.0038999412 -0.10992087 -0.21222156 -0.05042973 -0.08652649 0.3956198 0.25408587 -0.3886396 0.22413015 0.065688595 0.47386137 0.20331126 -0.071764424 -0.33590847 -0.06433821 0.22247583 0.2497846 0.080917455 -0.45894465 -0.19447996 -0.39745766 -0.013911551 -0.2051374 -0.14470024 0.13081802 -0.09637253 0.048595563 -0.100220606 -0.18429147 -0.14381817 0.02079416 0.16656102 0.20757702 -0.12942067 0.26375103 -0.12901604 -0.06101305 0.006300446 -0.060231358 0.05328974 0.28943726 -0.28685138 0.19683251 -0.09868301 -0.1476111 0.0136100175 -0.014379195 -0.26764792 -0.19251849 -0.07424465 -0.4276057
http://www.meteck.org/teaching/OEbook/ontologies/AfricanWildlifeOntology1.owl#CarnivorousPlant 0.08255742 -0.060789138 0.14852175 0.09633733 -0.27781653 0.16011691 0.03591735 0.25301602 -0.325472 -0.03219103 -0.16766922 0.18702742 -0.013592697 0.28648654 -0.070183955 -0.13646308 0.10181706 0.029545072 0.026580669 0.10814957 0.036265325 0.057582732 0.15531859 0.21033366 0.16290516 -0.13970917 -0.085838884 -0.042125314 -0.20130026 -0.025757596 -0.100526564 -0.029764337 0.08999866 0.008512402 -0.20022689 -0.0725892 0.118428 -0.32932165 -0.19744289 0.14410664 -0.08042312 0.09162 0.23997697 -0.19868124 0.055188593 0.15010606 0.20327203 -0.05516353 0.09167163 0.022576012 -0.08704154 -0.1679297 -0.05648365 -0.07403928 0.31118542 0.18902151 -0.2940277 0.19469874 0.04170824 0.37254456 0.16891085 -0.053272855 -0.24695875 -0.034054223 0.16662085 0.18699205 0.061660193 -0.353176 -0.15814215 -0.30653957 -0.02287212 -0.17561683 -0.113913365 0.097692855 -0.07438634 0.038608063 -0.075745404 -0.12902083 -0.122682184 0.04332837 0.13203877 0.1738139 -0.12374893 0.1988468 -0.09378829 -0.063349545 -0.01681077 -0.036249906 0.051472858 0.23342505 -0.21175215 0.1461931 -0.08044802 -0.12530027 0.008174729 -0.008857263 -0.19562009 -0.13856924 -0.07368744 -0.34992442
